[ 0.18141665  0.17438406 -0.14251531 -0.13072516 -0.0391894   0.01820492  0.2625571   0.03264579  0.05152279 -0.00577107]
[ 0.03212177  0.38003933  0.09571168 -0.11227439 -0.3950547  -0.14503604  0.19108358 -0.31862516  0.12754048  0.33116894]
[-0.00403807  0.21442189  0.45947769 -0.16532798  0.19309434 -0.09426264 -0.1616422  -0.21564744 -0.01897797 -0.06417039]
[-0.17126928 -0.23052552  0.06098512  0.29601399 -0.12809298  0.12879265  0.0983692  -0.00468935 -0.01438378  0.11444968]
[ 0.03559335 -0.20581653 -0.01695497 -0.41600602 -0.15748164  0.29168801  0.1127847  -0.02956992  0.23338637  0.11333491]
[-0.26100021 -0.54044341  0.35849429  0.19547278 -0.24456821  0.36854711  0.87631463  0.3074806   0.13785914 -0.6841448 ]
[ 0.54165309 -0.1680248  -0.14631318 -0.0586633  -0.46016242  0.7812135  -0.06964996  0.10270858 -0.17205926 -0.3917542 ]
[ 0.04820701 -0.21957702  0.26742174  0.5929353  -0.06149578 -0.51914168 -0.15197492  0.49769948 -0.11580069  0.09700706]
[ 0.01549707  0.12314819 -0.12812281 -0.20168193 -0.04692682 -0.01646407 -0.21884619 -0.07350483  0.065329   -0.08514468]
[ 0.03309446  0.07212519 -0.32892379 -0.67318785  0.45305384 -0.16009337  0.06847083  0.42132867  0.00770256  0.37245834]
[-0.08528902  0.20759193  0.84401773 -0.18430875 -0.39409474 -0.5390739  -0.00508538  0.35383072  0.25505405 -0.47943306]
[ 0.0772925  -0.13096137  0.05927619 -0.50951757  0.19350252  0.02153004 -0.04380888 -0.04496231 -0.15962861  0.63632226]
[-0.18790202 -0.09400152 -0.21299907  0.1155      0.00670628 -0.18504803 -0.17168573  0.11883852 -0.04485577  0.41608699]
[-0.1361665   0.28305906  0.36532191  0.43231016  0.15109585 -0.41688138 -0.07000238  0.07380304  0.06011033 -0.59017457]
[ 0.00294205 -0.06804379 -0.22722221  0.20324003 -0.03255739 -0.05749355  0.17576888 -0.08665752  0.08083806 -0.03185652]
[ 0.02060179  0.04689405  0.17864884 -0.30738133  0.45936005 -0.39684692 -0.31191328  0.45498264 -0.7136838   0.20004184]
[-0.14408799 -0.11944271  0.13276998 -0.01819469 -0.03425919 -0.18764728 -0.0192526  -0.1563246  -0.05031604  0.08422133]
[-0.00540664 -0.05656291 -0.03521887  0.27742228 -0.07673908  0.55779189 -0.36923777 -0.37516007  0.02380186 -0.1111018 ]
[-0.07725124 -0.38587995  0.51713088 -0.28606866  0.41382266  0.22405534  0.13682591 -0.20822256 -0.17453195  0.05560754]
[-0.1629614  -0.11760683  0.11622651 -0.04314701 -0.24013822  0.05615958  0.0514468  -0.15144121 -0.04594883  0.00060502]
[-0.31004531  0.53062831  0.04226693 -0.14615684 -0.54140006  0.01717314  1.09572156  0.1419341  -0.42124196 -0.22160195]
[-0.05205176 -0.09902962  0.7713819   0.05517931 -0.12712113 -0.40796383 -0.14933814  0.34489974 -0.05929288 -0.50480701]
[-0.29850796 -0.06011048 -0.32283851 -0.05222266 -0.28847183  0.35596209  0.35856139  0.09413904 -0.20794117  0.05414139]
[ 0.18977536  0.34355567  0.33212968 -0.31557008 -0.00791869  0.27670989  0.04654421 -0.35812226 -0.11450621 -0.2698177 ]
[ 0.04431093 -0.12743274 -0.12775043  0.22826424 -0.08650758 -0.13567214 -0.04667286  0.32943499 -0.30199351  0.38018895]
[-0.0384503   0.58481444 -0.54158771 -0.46563513  0.25126934  0.05464085 -0.47007099  0.51310958 -0.35067666  0.51817173]
[-0.6459833   0.07294001  0.04243409  0.38670367 -0.07479914  0.62758697 -0.37056861 -0.32291495  0.24590319  0.2488421 ]
[-0.315333   -0.30949072 -0.09880299 -0.17015506  0.6854961  -0.67716558 -0.06781479  0.64666806 -0.36307535  0.17497606]
[-0.44531743 -0.17504694  0.08729125 -0.08395566 -0.46681983  0.77651977  0.16673956  0.27139383 -0.08120998 -0.04892571]
[ 0.17214772  0.26143971  0.01659316  0.23991004 -0.31280739  0.02466388  0.11438415 -0.25535138 -0.04607838 -0.16579254]
[-0.18579784 -0.28598949  0.13092278  0.05793343 -0.01639891 -0.01114046  0.1893167  -0.2494624   0.34341577 -0.00271899]
[-0.15769057 -0.00551178  0.11036782  0.34331284 -0.2553521   0.16429937 -0.10797625  0.54532018 -0.14115016 -0.43083243]
[-0.16241364 -0.12839644 -0.3124344  -0.25396356  0.00744618  0.41718127  0.50874327  0.40764317 -0.12556842 -0.45408031]
[-0.02593926  0.11169443  0.30997459 -0.04118428 -0.1506661  -0.22868025 -0.26075587  0.1300419   0.02325479 -0.28528845]
[ 0.18115541 -0.16043203  0.53258077  0.33985625  0.3656279  -0.97796989 -0.18570949  0.14816878 -0.04014424  0.19829914]
[ 0.03259943  0.00113104  0.06252379  0.02537745  0.0359374   0.08084842  0.1092723   0.09464076 -0.2552596  -0.09716523]
[ 0.09720205  0.11326576  0.08884263  0.49151542 -0.32708404 -0.04897094 -0.63721449  0.19060387 -0.11343553  0.21028608]
[-0.21783938  0.39195523  0.3767146  -0.14671729 -0.18573358 -0.65461684 -0.25880591 -0.16425177  0.18029646  0.51643435]
[-0.1811278   0.18038277 -0.02813861  0.19481203 -0.60944054 -0.2968653   0.17048895  0.2399415  -0.43430477  0.37721018]
[-0.26252248  0.30493033  0.13016233 -0.41358669  0.76174464 -0.27135032 -0.30311679 -0.11371229 -0.02965314  0.16567036]
[-0.06495293  0.00977962 -0.061278   -0.08720701 -0.12766317  0.33877737 -0.16554867  0.1177469  -0.1921107   0.10416003]
[ 0.15156831 -0.13231542 -0.10695008  0.01803598  0.06513891 -0.12650422  0.18824207 -0.37451056  0.03157615  0.05519792]
[-0.42702233 -0.37012079  0.46153153  0.48903667 -0.29876924  0.05179062 -0.50310423  0.09725422 -0.15474378  0.0970807 ]
[-0.31943597 -0.03997909 -0.11192031 -0.13035194  0.40774047  0.4180239  -0.1992562  -0.44933102  0.10431281  0.18355389]
[ 0.05500133  0.0296389  -0.3502362   0.01608322  0.231495   -0.03922142 -0.10799577  0.29512651 -0.15581222  0.07422012]
[ 0.11102018  0.01412486  0.12260956  0.06823438  0.03747619 -0.02632209 -0.06996171 -0.04567013  0.12426662 -0.05451349]
[-0.00252828 -0.17308451 -0.01083173  0.05105576 -0.01212831  0.077028    0.12019562 -0.18176563  0.1430179   0.30963885]
[-0.17976709  0.01382021  0.06252877  0.35434627  0.03555571 -0.04492872 -0.04357091 -0.30385191  0.02282363 -0.05166433]
[-0.06830965  0.13889471 -0.28599179 -0.11562161  0.47516224 -0.09775778  0.38000629  0.12603731  0.29239183 -0.30614839]
[ 0.68285822 -0.09328535 -0.06994648  0.02119448  0.43063279 -0.76916274  0.38427248  0.03219206 -0.62467888  0.13156247]
[ 2.01522012e-01  9.84736497e-02 -6.70756122e-02 -4.59899223e-02  6.37888664e-02  9.24388892e-02  1.61952319e-01 -1.24236324e-04 -1.05000582e-01 -2.71244885e-02]
[-0.03040627  0.03261472 -0.34475605  0.2616794   0.01587551  0.41792198 -0.00877634  0.02628341 -0.21144388 -0.12996793]
[-0.66626014  0.4574434   0.15655633  0.44497391  0.25760252  0.32441955 -0.81858589 -0.44314604 -0.22440938  0.58060262]
[-0.04770778  0.0056825   0.10496544  0.13937392  0.09346189  0.03970101 -0.11907435 -0.16369866 -0.05462317  0.03399692]
[ 0.13166515  0.03402649  0.09930021 -0.33876239 -0.08761821 -0.47559749  0.1964537  -0.12262405  0.13607847  0.45553597]
[ 0.70962613 -0.15584793 -0.6483939  -0.38167606 -0.1179968  -0.17149282  0.147649    0.33352556 -0.07164774  0.39445837]
[ 0.1290815  -0.06982497  0.09847375 -0.20449696  0.1489831  -0.13967819  0.1955379   0.01336372  0.0604316  -0.07526601]
[-0.14709008 -0.15603729 -0.07654207 -0.15109106  0.35527163 -0.06431946 -0.33185551 -0.42321221  0.02130807  0.34500899]
[-0.26570144 -0.09162059 -0.22655398  0.20405338 -0.0707768  -0.25842325 -0.09567937  0.24024777  0.22599894  0.10974487]
[ 0.01484913 -0.08618134  0.10962922  0.01609981 -0.02964972 -0.08801664  0.10424526 -0.01015364  0.07198892 -0.0679751 ]
[-0.10404086  0.4570086   0.57911811 -0.47830925 -0.16483154  0.25170725 -0.08747568  0.50891445 -0.83085265 -0.62929507]
[ 0.0667361  -0.11128294  0.13173689 -0.07402111 -0.1112929  -0.4252625  -0.03881379  0.69091062 -0.20442221  0.48468601]
[-0.04392701 -0.25205961  0.20080603  0.71934257  0.11939872 -0.51220812 -0.42649388 -0.08724129  0.50798653 -0.05516438]
[-0.10190867  0.01968379 -0.11003748  0.15148627 -0.0199376  -0.36219368 -0.1574516   0.11622839 -0.27977457  0.25676817]
[ 0.22801632 -0.13598174  0.38259848 -0.06478726 -0.62585036  0.24802262  0.42595275 -0.12189599  0.18305184 -0.32244889]
[ 0.30389055 -0.07301263  0.18144547  0.21259646 -0.0131426  -0.00521675 -0.0613351  -0.06383831 -0.28371237  0.10882192]
[-0.07163537 -0.17391035  0.03209083  0.22774356 -0.0751144   0.72702608  0.05839781 -0.12746831 -0.44819384 -0.09588388]
[-0.26428666 -0.47353014 -0.31844073  0.2045874   0.38773932  0.26687127 -0.46928906  0.54142571  0.03519094  0.0598739 ]
[ 0.05835668 -0.03738511  0.0860494  -0.10433058  0.07925333  0.15432047 -0.02828759  0.02793063  0.07795267  0.14679922]
[-0.42033208  0.01683145 -0.09726475 -0.0507117   0.08009895  0.53442151 -0.16959978  0.14530792  0.13850268 -0.37736928]
[ 0.29673002  0.05835681  0.74862204 -0.20769006  0.03513685 -0.12004281 -0.26108164  0.30062118 -0.17213419 -0.2508719 ]
[-0.09350676 -0.00389085  0.05921255  0.08048288  0.15113351 -0.04930727 -0.08295537  0.00403466  0.02512268  0.11341155]
[-0.18823836 -0.08561009  0.15929158  0.08160795  0.35318843 -0.02501211 -0.0989617  -0.10992422 -0.00598926 -0.09143526]
[ 0.25020159 -0.1289258  -0.13860536 -0.18783777 -0.37081108 -0.0506772  -0.08590368 -0.26746547  0.51095008 -0.20125866]
[ 0.01509826 -0.01181243  0.43360623 -0.04005542  0.38713311 -0.12956173  0.06334582 -0.06184362 -0.19401484 -0.51847754]
[-0.40800957 -0.28912163 -0.11330816  0.05790774  0.65221542  0.19533771 -0.19191474 -0.16095101 -0.14285654  0.14646325]
[ 0.38290232 -0.37441742  0.05776393  0.20236519 -0.51112703  0.2250686   0.21731826 -0.30406412 -0.08574664 -0.13397764]
[ 0.11245989  0.08082831 -0.38272913  0.00648827 -0.31685947  0.44695317  0.51153649 -0.09004612 -0.12063423 -0.21300278]
[ 0.49051265 -0.06974338  0.2888215  -0.46458865  0.2836873   0.08577785 -0.36048813 -0.12357342 -0.18044367  0.15243974]
[ 0.00558314  0.03437011  0.10064079  0.08016623  0.39643415 -0.52599888 -0.11914827  0.19092881 -0.12505144  0.33911342]
[ 0.20430277 -0.28807746 -0.37555552 -0.04178845  0.08367188  0.22941823  0.34825127 -0.26189257 -0.08717256 -0.22939098]
[-0.32569324 -0.05930427 -0.11883063  0.0891088  -0.16710902  0.22843757  0.15529047 -0.18928725  0.15428749  0.08028677]
[-0.13222447  0.18715688 -0.41706043 -0.34653133  0.05627604  0.15095449  0.52618091  0.06418429 -0.01249315 -0.15791799]
[-0.3397147  -0.07196697  0.6451585   0.69713596 -1.00910528  0.00331851 -0.46522858  0.1521419   0.19495181  0.11558175]
[ 0.06303266 -0.06268527 -0.07133336  0.15204149 -0.13295674  0.23374417  0.0487391  -0.25027421 -0.22650251  0.16012415]
[-0.14176077  0.38033295  0.191661    0.60760142  0.38740964 -0.99846856 -0.09320894  0.29686109 -0.09587735 -0.53940402]
[ 0.05124793  0.18498225 -0.10530403 -0.01603182  0.29676542 -0.1951567  -0.112638   -0.06006898  0.16693611 -0.35784638]
[ 0.42212249 -0.18449629  0.95699314  0.15959693 -0.10036192  0.04735193 -0.32029541 -0.01308904 -0.62351149 -0.14885658]
[-0.03988439 -0.03978272 -0.046222    0.0999445   0.69881872 -0.20347707 -0.39008762  0.11967474 -0.28528583  0.34859061]
[-0.48487423 -0.14684128 -0.52121777 -0.0664484  -0.39001179  0.73682859  0.04779492  0.47084448  0.11358519  0.5827591 ]
[-0.15445516  0.47465769  0.23828623  0.06344978 -0.26951851  0.08200517 -0.33276934 -0.20725292  0.01377796  0.04006552]
[ 0.3587953   0.19130236 -0.26818795  0.57372151 -0.01489706 -0.28254356  0.26533957  0.04622725 -0.27202051 -0.64057513]
[ 0.15208221  0.00651805  0.16441078 -0.31190992 -0.0771812   0.04916559 -0.03047845 -0.07588046 -0.0575039  -0.15178979]
[ 0.09733951 -0.10713149  0.74283489 -0.1645367   0.03540298  0.10489401  0.66259065 -0.78342114 -0.11345525 -0.36552566]
[-0.07378484  0.11118707 -0.20979498  0.06472919  0.41816293 -0.0338671  -0.19146986 -0.16200641  0.30096016  0.37282984]
[-0.09772044 -0.11322206 -0.0357351   0.18769148  0.16538448 -0.01647773  0.06751745 -0.13803064  0.23646549 -0.0420991 ]
[-0.01234492 -0.09964482 -0.28613315 -0.14313636  0.1349329   0.09082136 -0.17288447  0.06822681  0.38320555  0.35035926]
[ 0.33522653  0.01209591 -0.00441016  0.07896913 -0.31846838 -0.37916556  0.17733498 -0.14426536  0.14462078  0.1784933 ]
[ 0.18878403 -0.16265626 -0.26377644  0.92254383 -0.61448744  0.5400476  -0.28877792 -0.27001543 -0.28380968  0.07009005]
[-0.01025295  0.1752832   0.05624599 -0.37158828  0.04482695 -0.19187665  0.05315633  0.19166747  0.15000586 -0.15128763]
[ 0.2991073  -0.28599018  0.60119265 -0.00950615 -0.13816004  0.2086436  -0.29381267 -0.13449814 -0.21282832 -0.15891781]
[ 0.16881051  0.1759629  -0.69111065  0.50006153  0.8009173   0.36387243 -0.11848685  0.16531204 -0.30663381 -0.38061912]
[ 0.31692408  0.30064804  0.10710871  0.10341969 -0.08786001  0.4447245   0.03664122 -0.11369175 -0.17533847 -0.62178677]
[ 0.16886319  0.04373818  0.11336058  0.07817201 -0.60148185 -0.12606983 -0.33915592  0.65884616  0.28326394  0.32111527]
[ 0.44727677  0.01149447 -0.67773502  0.35108589 -0.39530928  0.577963    0.50375746 -0.58956532 -0.0656519  -0.11745796]
[-0.04997783  0.0604711   0.07872842 -0.04237353 -0.01548253 -0.02473983 -0.11776046 -0.23692999  0.04141285  0.14053896]
[ 0.67307754 -0.47700659 -0.36576743 -0.04510532 -0.15488438  0.43347164 -0.44750887  0.10376637  0.38133886 -0.42378705]
[-0.09867906 -0.20018388 -0.2922139   0.13214105 -0.25393866  0.36491317  0.08477656  0.05293107  0.25684706 -0.00429063]
[-0.11335938  0.12667903 -0.13707858  0.02098728 -0.10400792  0.15653557 -0.20513465  0.25467188 -0.08337442 -0.31430645]
[-0.16015358 -0.00201715 -0.04753127  0.1470426   0.29578968  0.08805524  0.27368941  0.02992926  0.1855409  -0.02889593]
[ 0.15153802  0.10098459 -0.02728229 -0.22861543  0.06148008  0.48013412 -0.11151261 -0.05016851 -0.41340702  0.07016471]
[-0.15448306 -0.1298119   0.03659377  0.02052332  0.0367132   0.11423141 -0.00797338  0.04359292 -0.25782978 -0.21262813]
[-0.18875487 -0.05529501 -0.04288837  0.38428356 -0.23532036 -0.21660085 -0.13754535 -0.07264667  0.79867067 -0.44789961]
[ 0.51530809  0.07667334  0.01094712 -0.08622409  0.00609927 -0.11075302 -0.39027588 -0.04581841 -0.20971348 -0.0465751 ]
[-0.17967111  0.02158235 -0.06322666 -0.12415707  0.04555192  0.22549429 -0.05226531 -0.02991946  0.02398922  0.25996438]
[-0.14536983 -0.22301358  0.90347915 -0.19590689  1.01414176  0.02451189  0.22937891 -0.50411508 -0.67707642 -0.49181928]
[-0.1088291   0.00897191 -0.45181371  0.21043715  0.08655149 -0.192993    0.39537965  0.0286127   0.0593841  -0.19568304]
[-0.23711123 -0.14326717  0.2586778   0.16791623 -0.31581404  0.18250386 -0.21495033  0.0346222   0.08506945  0.06226028]
[-0.12144881 -0.08735343  0.0322306  -0.05246879  0.25560393  0.04897296  0.10339516  0.06069549  0.1277247  -0.12359339]
[ 0.12357862 -0.12320826 -0.04766814 -0.25468812 -0.02143641 -0.03077147  0.037637    0.1716793   0.01609934 -0.01456376]
[-0.03682927  0.02513091  0.03792832  0.02114663  0.01598277  0.04402383  0.15379536  0.10594293 -0.03833344 -0.11904394]
[ 0.23283809 -0.26571199  0.10747331  0.57311483  0.16430427  0.09875903 -0.21382834 -0.30901521 -0.36516666 -0.20909384]
[ 0.45086647  0.32173524 -0.17585409 -0.23009598 -0.17217213  0.04399561 -0.15081246  0.34284365 -0.37941934 -0.22754907]
[-0.09266934 -0.02547624 -0.01243692  0.11903102  0.02156439  0.05686835 -0.00679254 -0.0422499  -0.03292463  0.11935046]
[-0.2799054   0.17407269 -0.16369062 -0.1380599  -0.03119877  0.1247689   0.28719657  0.31925508 -0.01203571 -0.54991239]
[ 0.0942783  -0.03227512 -0.14757602  0.12876374  0.13977176  0.0234041  -0.09645168 -0.0656655   0.27001602  0.06470287]
[-8.91114134e-05  3.85897137e-01  1.51405325e-01 -2.58989969e-02 -6.36441661e-02  1.39981660e-02  1.92748190e-01  1.20565717e-01  1.41604080e-01  3.34135660e-02]
[ 0.03867258  0.13504548 -0.27074933 -0.34223451 -0.05859812  0.08737464  0.02266294  0.18529393  0.13708055 -0.07347777]
[ 0.44961267  0.03539752 -0.08741105 -0.07656181 -0.2139876   0.1244827  -0.12427347  0.51736992 -0.14204498 -0.54472694]
[-0.20419998 -0.46775092 -0.00479898 -0.04570599  0.41272839  0.41487136  0.48572919 -0.41621454 -0.05120879 -0.06972995]
[-0.05387264  0.04003397  0.07752782 -0.15075658  0.0711565  -0.16834569 -0.07240812 -0.14028486  0.16953375 -0.1262674 ]
[-0.22636095  0.19772436 -0.24974211 -0.18679608  0.49732355  0.16711048 -0.17301949 -0.41779325  0.23449068 -0.46576465]
[-0.10592357  0.08809479  0.03896944 -0.13871112  0.1435147  -0.12861317 -0.0051653   0.14451425  0.07951782  0.01498188]
[ 0.02544114 -0.55275903 -0.04098819  0.15104924  0.18568747  0.05038108  0.19980089  0.34313929  0.16156663 -0.15477474]
[ 0.04235474 -0.12169236  0.41654115  0.1918082  -0.27194879  0.08583974 -0.20145058  0.0359823  -0.06375904  0.17702268]
[-0.15686698  0.11486539 -0.17191263  0.08020408 -0.25981538  0.1122149   0.00751599  0.03090296 -0.06255674 -0.04527489]
[-0.09957547 -0.07476293 -0.2997008   0.33865486 -0.14514882  0.33720466 -0.11998092 -0.36132505 -0.19922305  0.29606816]
[ 0.24155443 -0.10034507  0.33287931 -0.07441416 -0.17259881 -0.27469113 -0.25122632  0.06145806  0.07616134 -0.24526441]
[ 0.00047857  0.01022607  0.10155484 -0.25318931 -0.00220576 -0.29875332  0.24084858 -0.18164663  0.29296017  0.16618567]
[-0.17297735 -0.01056003  0.0370401   0.27154799  0.24213999  0.52034491  0.50295743 -0.45683026 -0.06357344 -0.57161023]
[-0.30185002  0.37130347  0.44464171 -0.02889329 -0.37289041 -0.24993637 -0.02691983 -0.01039092  0.17237532 -0.14899763]
[ 0.0729859   0.03068825  0.09793592  0.10248239  0.06218119 -0.02366257 -0.20377888  0.17500033  0.08706642  0.03433485]
[ 0.15295747  0.1555424  -0.05824795  0.10797661 -0.26994975  0.42121123 -0.05319477 -0.14275658 -0.1956421   0.11940256]
[-0.2369519   0.26369189 -0.33955344 -0.22069394  0.20712403  0.07295882 -0.21553127  0.33438149 -0.15785786  0.19874965]
[ 0.06359786  0.05596143 -0.00085175 -0.06380692  0.09989973  0.26820034  0.16087335 -0.01260096  0.08018037  0.0455494 ]
[-0.01578149  0.21352626 -0.69413867  0.56320267 -0.03726004 -0.17489097 -0.23077803  0.45572325 -0.2317601   0.29349164]
[ 0.41427387 -0.00811542  0.08063266 -0.74969431  0.80765729 -0.2812468   0.12917694  0.07997345 -0.40640473  0.11351499]
[-0.23521993  0.0873957  -0.02408007 -0.10555765  0.15277924 -0.03148523 -0.02440527 -0.14437352  0.11471412  0.47092356]
[-0.12014306 -0.43522435 -0.10879341 -0.07368618  0.40355997 -0.24211259 -0.02730444  0.37185788 -0.36360207  0.4457813 ]
[ 0.52880256 -0.04849693  0.37961125 -0.40373618 -0.13177013 -0.54936403  0.07628443  0.04986454  0.11576817  0.31443788]
[ 0.33359189  0.178941    0.3294139   0.0288824   0.15721044 -0.54108356 -0.23283015  0.25398211 -0.32495798 -0.15644094]
[-0.16431278 -0.36566948 -0.31617301  0.60093293  0.42728803  0.28340084 -0.434553    0.12195205  0.12330906  0.08778145]
[-0.20173289 -0.09822088 -0.12273617  0.3544824  -0.14357238 -0.23345566  0.08458924  0.03563386  0.10599326  0.03043845]
[-0.03860856  0.14650008  0.08914812 -0.09346188  0.09944611 -0.09771363 -0.10991078 -0.05297    -0.03785176  0.00121112]
[-0.16872189 -0.05517555  0.09491987 -0.09841038  0.84558824 -0.12524073  0.44320762 -0.20170398 -0.14819854  0.14252606]
[-0.06523753  0.568188   -0.03720947  0.39359483  0.70061894 -0.5894739  -0.09174275  0.05455943 -0.22856498 -0.65686299]
[-0.03049671 -0.1646523   0.12945111  0.50627621 -0.05817331 -0.0537777  -0.06586417  0.16523403 -0.21480687 -0.08737078]
[-0.11480765  0.10290587  0.08259657  0.21982827  0.66285759  0.16774141 -0.17798132 -0.04463556 -0.18277033 -0.38028014]
[ 0.08528672 -0.00433753  0.14485975  0.17877789  0.01708921  0.04816233  0.19209753  0.13338575 -0.09084699  0.10877913]
[-0.16459562  0.0468367   0.10486332  0.09408122  0.08316325 -0.24516018  0.010246   -0.05888022  0.07508988 -0.09401525]
[-0.15508347  0.19776546  0.50213395  0.09061577 -0.47637382  0.24234125 -0.12553676  0.37179139  0.00563987 -0.58082723]
[-0.33885473 -0.06113244  0.33304323  0.03703045  0.0870457  -0.56704404  0.09318962 -0.27428276  0.15471343 -0.22285399]
[ 0.09212547 -0.11424558 -0.08901892 -0.03079499 -0.04292337 -0.07740587  0.00989264  0.02635727  0.10489032 -0.01322841]
[ 0.03942051 -0.05849993  0.14716203 -0.14320839 -0.0712952  -0.02379679  0.0853276   0.00967349  0.13627447 -0.29467998]
[-0.10824538  0.213066    0.13437801  0.23514685 -0.35951139  0.32052943  0.01595466  0.63759371 -0.37832844 -0.27547802]
[-0.59229627 -0.35451259 -0.60484661  0.86034258  0.36292858 -0.03218371 -0.32918918 -0.15651683  0.36308601  0.52412703]
[ 0.02604081 -0.09005218  0.25158415 -0.19216374 -0.05408744 -0.20241408 -0.50473441 -0.38363124  0.52954699  0.12551059]
[ 0.18893781 -0.09794731 -0.15842618  0.26973003  0.19864626 -0.00078575  0.0136109   0.00683229 -0.39333117  0.00741798]
[-9.45360007e-01  1.11624037e-02  2.57904122e-01  4.57201932e-01  2.40905899e-04  5.34268828e-01 -4.93696359e-01  3.06004618e-01 -6.09532394e-01  4.17863115e-01]
[-0.2008833   0.21779788  0.15813853 -0.10866944 -0.13019112 -0.10898049  0.23162322  0.05318699 -0.07719019 -0.08438465]
[ 0.07406591  0.01906566 -0.10483126 -0.02741982  0.07207484  0.06848112 -0.01397236 -0.08224677  0.27910564  0.09243978]
[-0.1275678  -0.13527743  0.21834424  0.11301646  0.2815689   0.10291896 -0.25171134  0.18816715  0.1417828  -0.51841634]
[ 0.37231616 -0.1066351  -0.30459839 -0.47105194  0.22819214  0.17255592  0.3098061   0.29861928 -0.42215602  0.25029598]
[ 0.50422846 -0.28365648 -0.9231531  -0.03155548  0.41443897  0.00769136  0.76420628  0.1605635  -0.26442429 -0.30312157]
[ 0.13033451 -0.26852655  0.91669594  0.43236217 -0.09853659 -0.32882233  0.07333948  0.28040308 -0.31389175 -0.07031016]
[-0.13768655  0.62192389  0.45769938  0.70166758 -0.25622949 -0.75213312 -0.27849782 -0.0539469   0.2271674  -0.30745545]
[-0.34398864 -0.05659141  0.23673205 -0.30974337 -0.17147455  0.07679139  0.01471663  0.74912007  0.04714807 -0.10261876]
[-0.20293446  0.14822181 -0.11335897 -0.0311935   0.30983323 -0.25547803  0.05941063  0.23002662  0.16494384  0.18824227]
[-0.2099016   0.02311652 -0.09158273  0.01844627 -0.02152708  0.21836785 -0.11582833 -0.16357517 -0.16183504  0.09735871]
[-0.07619638 -0.02578994  0.07884876  0.10395829 -0.21930712 -0.2431412  -0.51468458  0.27926207  0.21179495  0.50163161]
[-0.21429766  0.11123171 -0.19451379 -0.27996244  0.26995909 -0.46281913  0.13119033  0.52065343 -0.05670753  0.10797639]
[-0.089721    0.16546307  0.29170872  0.88311163 -0.60307164 -0.520008   -0.15526356  0.11706999 -0.03427499 -0.22218776]
[-0.02097017 -0.02191281  0.04714208 -0.03043986  0.20522751  0.26453952 -0.17046984  0.25526864 -0.22416142 -0.09245521]
[ 0.24333247 -0.05331309 -0.310676    0.29041024 -0.35111571  0.15807955 -0.28975749  0.01201376  0.21338392  0.00936076]
[-0.0322413  -0.05474699 -0.21057538 -0.14136285  0.10124664  0.16819932  0.02791055  0.22247965  0.06979617 -0.18415283]
[-0.30191074  0.18939502 -0.19806997 -0.25180378  0.28579763  0.24908628 -0.20436305  0.48731161  0.14453902  0.02382388]
[-0.24712184  0.8158113  -0.17502271 -0.19545548  0.13128308  0.0575055  -0.336022    0.10306301 -0.3592276  -0.07457908]
[-0.28971417  0.23023856 -0.20810657 -0.45087375  0.13769117  0.68262524  0.36294137 -0.17094321 -0.31831038  0.00918741]
[-0.02099827 -0.21473598  0.1352823  -0.07863346 -0.09695658  0.18061893 -0.38622714 -0.35263248 -0.00349667  0.18864126]
[-0.11757958  0.21029334 -0.00862823 -0.14749553  0.25989573 -0.12494633  0.01708924  0.04314828  0.3115276  -0.31319093]
[-0.37812248  0.51101516  0.50873588 -0.16207119 -0.10117638 -0.21027513  0.29678062 -0.14020564  0.11064728 -0.33897752]
[-0.16531032 -0.0147391   0.24715114  0.17480241  0.43051227 -0.23006785  0.05803219 -0.07789779 -0.2114746  -0.2058318 ]
[ 0.51777017  0.07845818  0.18629082  0.04864798 -0.28668478 -0.15837707 -0.18632857  0.40064889 -0.07951214 -0.24107453]
[-0.0537585  -0.10276898 -0.09169167  0.12902334  0.00694765 -0.06339449  0.02038571  0.00364524 -0.04601294  0.04336257]
[-0.09122275  0.04057782  0.08139467 -0.03148111 -0.06115617  0.00855507  0.36518096  0.15974136  0.2172595  -0.09322352]
[ 0.23131947 -0.16462131 -0.19470398 -0.38505208  0.2865734  -0.10864388  0.35942886 -0.21244825  0.0740958  -0.10036114]
[-0.17355555  0.33728807 -0.16727973 -0.13875941  0.10688001  0.05519612 -0.04567448  0.60749831 -0.45632591  0.36362469]
[ 0.10836431 -0.03137012 -0.00380554  0.05078142  0.04596889  0.04655967  0.06314592  0.22633981 -0.15552896 -0.30463558]
[ 0.16644424  0.03579529 -0.27415996 -0.74316032 -0.02477867  0.31352018  0.38160238 -0.17410721  0.14220131  0.07419972]
[-0.40542047 -0.01491478 -0.09946299 -0.48021549  0.91594812 -0.21284333  0.12965664  0.03238418 -0.36596009  0.16391689]
[-0.11495908  0.14277365 -0.13359861 -0.24071087 -0.02436605  0.01250409 -0.00783479  0.10651521  0.05998797  0.09370223]
[-0.11323541 -0.16482768 -0.41424392  0.48363881  0.25319639  0.33491157 -0.23078467  0.04363603  0.13572844 -0.16491513]
[-0.09375829  0.36575911  0.32845145 -0.6548342   0.00204466  0.01384256  0.10123837 -0.33661901  0.19096435 -0.29400921]
[-0.01306399  0.02900976 -0.08879454 -0.23952538 -0.0502809   0.04754799  0.50073415 -0.11513813  0.01034729 -0.35558287]
[-0.1908794  -0.30160594 -0.10587912  0.47825626 -0.15389411  0.00700356  0.07008667  0.38445071 -0.05462372  0.09507512]
[ 0.15643867  0.06705591  0.15923948 -0.1565596  -0.08528732 -0.22605243  0.10891555 -0.03145227  0.08946199 -0.11502759]
[ 0.11619031 -0.18356058  0.00863219  0.03081477 -0.04216244 -0.17709355  0.0687183   0.16918213 -0.03203493  0.0139862 ]
[ 0.32056571  0.24484469  0.32114081  0.46585111 -0.44059088  0.13858066  0.11194041 -0.22145133  0.01154031 -0.13056031]
[-0.23632966  0.1930221   0.12910799 -0.22145182 -0.04915222  0.08348402 -0.08770775 -0.02292236 -0.06418268  0.13378057]
[-0.13723545 -0.04156921  0.51114235 -0.03606191 -0.03559939  0.04601268  0.0214352  -0.05920568  0.39304871 -0.32981919]
[-0.15309263  0.25890436 -0.01355257  0.28541491  0.1431675  -0.14141869 -0.10628494 -0.00630767 -0.14951786 -0.01998907]
[-0.02106419 -0.04450552 -0.09889242  0.05195027  0.07802567  0.06399876 -0.0509845  -0.19528366  0.10147606  0.03331599]
[-0.2430108  -0.12405757  0.1990946   0.11597227 -0.08238106  0.16330529  0.18540382  0.0147979  -0.05546885 -0.36699538]
[ 0.39127962 -0.17336581 -0.02175517 -0.20645897 -0.07187105 -0.12763112  0.26879609  0.22325714 -0.36133571 -0.15528278]
[-0.12943963 -0.11949371 -0.0124691   0.31245142 -0.4536885   0.3254175  -0.15162437 -0.27491012 -0.23100693  0.3461906 ]
[ 0.37565958 -0.05644072  0.40565611 -0.4263096  -0.10420882  0.085519   -0.04105213 -0.03055209 -0.16865149 -0.03080679]
[ 0.23375815  0.0210053  -0.32379856 -0.12818798 -0.40341043  0.58911189  0.48848472 -0.43365548 -0.26817622  0.12340827]
[ 0.06931086  0.2036244  -0.28330661 -0.25025755 -0.05730663  0.60069956  0.03244204  0.04980811 -0.30286587 -0.26765893]
[ 0.06694438 -0.24707614 -0.08910341 -0.68329864  0.34652212  0.43278969 -0.12174985  0.36831959 -0.11483753  0.62786059]
[-0.11310658 -0.0392084   0.07136177  0.37100828 -0.03526429  0.30038409  0.21934734 -0.30786048 -0.64139175  0.29196648]
[-0.3451846   0.06932534  0.19450548 -0.18128326 -0.20050606  0.04963301  0.36039339  0.25822931  0.04340224 -0.33210912]
[-0.20643461  0.27218664  0.10392773  0.28132496 -0.11579144  0.42745654 -0.50162397 -0.28616601 -0.01901869 -0.14706333]
[-0.09551888 -0.31858142 -0.15376719 -0.03484599 -0.02379429  0.58816237 -0.42151302 -0.33700324  0.35857789  0.0659803 ]
[ 0.0864179   0.02327165 -0.0314138   0.11238256  0.01804566  0.03800698 -0.02274879  0.10880692 -0.08759767 -0.18475483]
[ 0.51689501  0.06985906 -0.19804272  0.49525404 -0.6730667   0.39708127  0.45986605 -0.36665767  0.17963849 -0.30443485]
[-0.1879075  -0.18391737  0.04068537 -0.06558137  0.03999993  0.21809982 -0.12433975 -0.11395933 -0.08149012  0.14818805]
[-0.05009538 -0.08868103 -0.41020408 -0.19647552  0.10099438  0.15189865  0.09786159 -0.03910925  0.16026058 -0.00864098]
[ 0.46765167 -0.20095094 -0.0538384  -0.22962891  0.33577891  0.22786379  0.23656128 -0.34804829  0.07397138 -0.1678654 ]
[ 0.02655409 -0.30940518 -0.43341834  0.2152955  -0.13677419  0.40108637  0.39614935  0.19416667  0.16653043 -0.37313269]
[-0.23947477 -0.08137388 -0.05509496 -0.22671273 -0.16557746  0.36270293  0.37235596 -0.18156662  0.25137938 -0.34975506]
[ 0.08658904  0.15433278 -0.14030892  0.01822546  0.18695316 -0.12147186  0.0649229  -0.02274755  0.00385507 -0.13842976]
[ 0.11498881 -0.05052175 -0.40642115 -0.31097895 -0.09394027 -0.02407232 -0.18701904  0.34311665 -0.11216615  0.44158197]
[-0.03870119 -0.11153493 -0.14898546 -0.14878782  0.1262636   0.39620843 -0.47056172 -0.44859791  0.43190095  0.46518162]
[-0.29516303  0.17689869  0.49951802  0.06595061 -0.0281106  -0.17749422  0.13439449 -0.50577385 -0.15007194 -0.1198434 ]
[-0.27085207 -0.14940221  0.21016954  0.57870417  0.25718147  0.11681341 -0.17849866  0.05041282 -0.20654771  0.09617437]
[ 0.36950307 -0.47420512  0.47116239  0.57883268 -0.82015367 -0.02100483 -0.14064567 -0.11532508 -0.3345941   0.49251756]
[-0.22370903 -0.36037782  0.19429396  0.38586744  0.10206755 -0.23709584  0.06137641 -0.06571284  0.22473171  0.47530437]
[ 0.16231878 -0.39824688  0.07147359 -0.03109615 -0.43789403 -0.39139004 -0.06151374  0.69115759  0.16011303  0.13296861]
[ 0.05963569 -0.33780079  0.01226695  0.25843969 -0.33217334 -0.12647995 -0.00884692  0.74701266 -0.29208628  0.16265496]
[ 0.03255087 -0.10702033  0.20443151  0.2695192   0.12892124 -0.27568848 -0.13336965  0.20463931 -0.24100084 -0.4295019 ]
[-0.00536144  0.25777    -0.01045461  0.01057801  0.51798286 -0.24423495 -0.00884278 -0.01552843  0.08492359 -0.35570018]
[ 0.33106867 -0.06749819  0.40595881 -0.09489655 -0.83986283  0.20695628 -0.07828976  0.0904629   0.17877281 -0.21730362]
[-0.05010339 -0.18039128 -0.1313838   0.18483906  0.03310354 -0.22459308  0.13902098 -0.04643324  0.4205322  -0.25125327]
[ 0.22362342 -0.28491022  0.19175636  0.0622275  -0.74123807  0.3379311  -0.30466031  0.64841469 -0.12041999  0.13145306]
[ 0.67476963 -0.33049379  0.16033498  0.19461217 -0.36940454  0.18574998  0.26592799 -0.3047067   0.15833787 -0.2652502 ]
[ 0.11231242 -0.02031    -0.00550059  0.05911319  0.03059497 -0.01091593 -0.08839353 -0.00402906 -0.18004886  0.1098155 ]
[-0.0472466  -0.17920278 -0.35034237 -0.04301598 -0.66220898  0.86694129  0.65396965 -0.14188062  0.14660563  0.09508393]
[-1.67863284e-01  6.77657740e-01 -3.49091981e-01 -8.35190514e-02  3.95749078e-01 -6.47987316e-04  3.57971055e-03 -2.13623415e-01 -3.07897100e-01 -3.28204493e-01]
[-0.19107038  0.68945407  0.00819232 -0.05090876 -0.21404795  0.40717885  0.04654323 -0.22869143 -0.33265692 -0.2146099 ]
[ 0.42214381 -0.11876305  0.02084919 -0.58970752  0.42522834 -0.08084074 -0.42456548  0.3059844  -0.14491355  0.09744749]
[-0.11134282  0.23785829 -0.40846112 -0.34000087  0.0559203   0.16629468  0.20128691 -0.28012873  0.56752602  0.24653705]
[ 0.00847718  0.07531104 -0.11855021  0.10422529 -0.06548137  0.1419804   0.08067158 -0.08479722 -0.03425698 -0.1667479 ]
[ 0.09509048  0.00451588  0.57355832 -0.02978305 -0.0540267  -0.17631548  0.09306506 -0.05486546  0.16918501 -0.13679741]
[ 0.04527725 -0.16470325  0.08232093 -0.20234452  0.66780306 -0.18311944 -0.13950794 -0.02821219 -0.03415183 -0.11645489]
[-0.20538744  0.48423056 -0.15700779  0.23088757  0.54118684  0.01686507 -0.07482016 -0.40266712 -0.0275895  -0.31030955]
[-0.12157671  0.81788324  0.04875031 -0.35843506  0.31515356  0.21133882 -0.25469013  0.17016285 -0.71696386 -0.02455285]
