[-0.08514668  0.07977238 -0.00216541 -0.03829059  0.02270334 -0.0821171  -0.01631981 -0.01447674 -0.13693391  0.13423746  0.0697877   0.01063001 -0.17945863 -0.11973176 -0.1090205   0.02958976 -0.04306766 -0.0537474  -0.08921992 -0.10974163  0.07851562 -0.00511301 -0.02783325  0.15667021  0.26733313  0.05577151 -0.01781102 -0.1896077   0.06552012  0.12412109 -0.0303848   0.11917433  0.19179783 -0.06612759  0.03696695 -0.07693998  0.11554268 -0.14179184  0.17887522  0.0920675   0.24008444 -0.17367125 -0.01342035 -0.02957306  0.03174281  0.00986191  0.10153304 -0.05636816  0.17681832 -0.09622249  0.12624454  0.13665162  0.08861303 -0.02925043 -0.02078964 -0.03637109  0.04969811 -0.11624258 -0.00909821 -0.13423566  0.0351807   0.07521483 -0.0739401  -0.1798027  -0.21411858 -0.00376181 -0.00730809 -0.09365533 -0.03976822 -0.06715851 -0.07657597  0.02238316  0.13014118 -0.0921381   0.02554127 -0.00352468  0.01550786  0.06224261  0.17630267  0.05647782 -0.02909456 -0.06838983  0.00094821  0.11166825  0.05279615  0.00058709  0.01132112 -0.06340446  0.11138278  0.10012986 -0.00437713 -0.06768217  0.193227   -0.14370667 -0.27429921  0.04983886  0.03589866 -0.05227933  0.02471968 -0.05489281  0.08155395 -0.1135916  -0.0159918  -0.01333524 -0.11767533 -0.06141872 -0.10618173 -0.02303886 -0.05913187 -0.03113734  0.11638463 -0.05288873 -0.09507874  0.1974983  -0.22558687 -0.03807782  0.0474468   0.00834131 -0.09114484  0.01076888  0.19293984  0.05104125 -0.11275196 -0.0126175  -0.10334131 -0.07259875 -0.0055844  -0.13252007 -0.04621683 -0.13553805 -0.12333404  0.02530894  0.03389269  0.02934577 -0.08219167 -0.03878798  0.09054903  0.04067373 -0.08944035 -0.02296147  0.1240036   0.03947736 -0.09376063  0.11595828  0.2086413  -0.02598384 -0.01759769 -0.1047045   0.00763992 -0.08267085 -0.02202241 -0.08231686 -0.04159732 -0.11948436  0.12412258 -0.00598381 -0.19722199  0.15231534  0.07822252 -0.18885372 -0.05610383  0.04067995 -0.02301742 -0.01097666 -0.01768684  0.07384105 -0.18069776  0.13993528  0.02953724 -0.09672569 -0.09116972 -0.07315369 -0.09503007 -0.00719941 -0.02179868 -0.03561963 -0.006859   -0.05436134 -0.07941745 -0.11660112 -0.21526888  0.00075994 -0.09104396 -0.0745429  -0.07077696  0.0156665  -0.00039687 -0.07102779  0.03231777  0.10081857 -0.02758353  0.1029622   0.0092721   0.1500245  -0.01636774  0.010943    0.10622158 -0.17804786  0.14443845 -0.05069217  0.23002077 -0.00768843  0.00034742 -0.06659263 -0.06618031  0.10229298  0.01857299  0.00669951  0.00267538  0.01828316  0.11776616 -0.00593655  0.00426196  0.12649866  0.15500678  0.11942653  0.00616542  0.06993548  0.10759345 -0.0445464   0.01427185 -0.14991367 -0.07451217  0.06214458  0.08813007 -0.04105093 -0.16375051 -0.03203088 -0.16884131  0.28316487  0.03979022  0.01748972  0.03723617  0.0531557  -0.12271009  0.03290915 -0.09257023 -0.05591246  0.0568177  -0.01823052  0.19175557  0.00513305  0.04960617  0.02469674  0.08321728 -0.12142122  0.00315138  0.07124706 -0.15928297  0.00807914 -0.08012563  0.12104554  0.00074121  0.04749225  0.01981171 -0.0112269 ]
[ 2.56914860e-01 -1.46085428e-01  5.19199401e-02 -1.09913363e-01 -5.89995100e-02  1.18397082e-02  4.66400856e-02  3.44394574e-02 -3.34101465e-02 -5.43684342e-02  3.55593750e-02  3.98085892e-02 -3.25852183e-03 -2.00377871e-02  8.54975419e-02 -1.41998864e-01  6.99413189e-02 -1.36816348e-01 -1.17552906e-01  1.10917803e-01 -1.46418891e-02  1.54835171e-01  2.55178692e-02  1.49805318e-01 -1.00302176e-01  6.43833383e-02  1.65185412e-02 -3.36802490e-02  4.78093073e-02 -7.37715604e-02  1.57342683e-02  1.09252774e-01  5.78237318e-02 -1.02748972e-02  1.55297597e-01 -3.16432835e-02 -5.60436932e-02  1.22600730e-01 -8.52543137e-02  1.42484107e-01 -1.38066358e-02 -1.33722258e-01 -2.75723221e-02 -6.19303968e-02  6.14084592e-02  1.41866938e-01  6.84382238e-02  6.98030243e-02  1.94279450e-01  1.20586037e-01  1.98697206e-02 -1.79523304e-01  6.55434375e-02 -5.12827859e-03 -1.49946411e-01 -1.17455060e-01 -3.09935657e-01 -7.87857369e-02  9.86575206e-02 -2.74678554e-02  9.71795778e-03  5.56457809e-02  1.43528860e-02 -8.32915382e-02  3.28172547e-02  2.12832403e-01 -7.70866860e-04  2.08089629e-01  5.82449231e-02  1.25010662e-01 -6.47711513e-02  6.37766031e-03 -3.39920517e-02 -3.54674279e-02 -4.40096633e-02 -9.70159755e-02  7.15262572e-02  7.46671627e-02 -4.82446834e-02 -1.05492948e-01  8.01368775e-02  2.43921492e-02 -4.89023886e-02 -3.67296944e-03 -1.88064757e-02  1.65403605e-01 -1.13599973e-01 -1.05876379e-01 -8.43194555e-02  1.61666882e-02  8.44437378e-03  8.34283762e-02 -6.97048933e-02 -7.42629981e-04 -1.52349989e-02  6.33186512e-02  4.46305029e-02 -8.64862951e-02  1.16034854e-01  8.17866474e-02  2.28161440e-02  9.96382242e-02 -2.97583277e-02  2.45064613e-02 -1.84909168e-02 -1.87571188e-01  6.01102140e-03  5.68055540e-02  1.11395528e-01 -1.81250280e-01  8.10160328e-02  1.29946359e-01  1.19555884e-01 -8.91099813e-02 -1.28696091e-01 -1.10024109e-01  4.09695189e-02 -1.53769102e-02  3.77170272e-02 -1.86329972e-01  6.60201382e-02  8.16923073e-02  1.20846442e-02 -1.50325779e-01 -1.43975713e-02  2.26884579e-01 -9.73949824e-02  4.90704902e-02  3.81588762e-03  8.07131049e-02  7.76288574e-02  7.24645264e-02  6.10548167e-03 -5.09280635e-02 -1.69120476e-01 -8.38339900e-03 -3.07893825e-02 -9.04330247e-02 -4.13016740e-02 -6.95703692e-02  5.69971319e-02 -2.08789671e-02  3.44424625e-02  1.99271503e-02 -3.67688447e-02  1.24457451e-01 -8.49493088e-02 -3.06388472e-02  7.91576063e-02 -9.83061690e-02 -1.86944802e-02  4.56843231e-02 -9.89963828e-02 -8.54532434e-02  4.72664769e-03  9.33113503e-02  1.60376834e-02 -2.31916839e-02 -1.14975219e-02 -4.57020485e-02 -1.26467265e-01  3.38723023e-03 -6.77640218e-02 -5.75641472e-02  2.80366071e-02 -1.18097539e-01 -2.07347106e-01 -8.77746258e-02 -1.01500698e-01 -6.24305334e-02  1.40875344e-01  6.35241381e-03 -1.54688294e-05 -4.21546153e-02 -4.59077451e-03 -5.13243570e-02 -1.65505016e-01 -3.20753679e-02 -2.67683314e-02  2.12263356e-01  6.19143673e-02  1.99774173e-01  1.83422755e-01 -6.98669414e-02 -1.03020084e-02  2.50678599e-02  2.29673759e-02  3.83690006e-02 -1.94676430e-01 -6.32549598e-03  4.09832196e-02 -8.46768950e-02 -1.45305493e-01 -3.09000599e-02  4.29601359e-02 -1.08367477e-01  1.19090129e-01 -6.22816217e-03  8.20068844e-03  6.31110467e-02  3.53494692e-02  4.32198170e-02 -1.22563291e-01  4.96884508e-02  7.71656672e-02 -3.48840491e-02 -5.63204482e-02  8.47394733e-02  1.73093393e-02 -1.39528564e-02  2.63981179e-03  2.19146638e-02  3.64842582e-02  8.04949064e-02 -3.10356851e-02  9.26865226e-02 -4.43111379e-02 -5.34393964e-02  8.29925148e-02 -1.51503576e-02 -2.11616743e-02 -1.00720050e-01  6.36611405e-02  4.11457103e-02 -2.30937918e-01  3.45995203e-02  2.41889570e-01 -4.40627407e-02  1.58014429e-01  9.37375200e-02  7.50345798e-03 -5.19032848e-02  1.12680433e-01 -3.14752968e-02 -1.39252399e-02  9.56029398e-02 -7.84933526e-02  2.30563216e-02  4.86144999e-02  1.35608530e-01  6.36802761e-02  2.35282277e-01 -2.73798467e-02 -1.57675912e-02 -1.21925326e-01  1.30384331e-01 -2.13015456e-01 -1.73058794e-01  3.69834773e-02  4.83969569e-03 -8.82896690e-03  4.20379058e-02 -9.62752003e-02  1.20123845e-02 -9.42419497e-03  9.60153157e-02]
[-2.21981359e-01 -1.20521551e-01  1.19991919e-01  4.21374275e-02 -6.37336835e-02 -9.37290878e-02 -3.36033394e-02 -9.53238730e-02  9.71403812e-02  1.68622754e-01  8.74767110e-02  1.81572461e-01 -9.23668770e-02 -9.42763822e-03 -4.73116726e-02  2.65126826e-03 -4.64213594e-02 -3.21266882e-02 -6.52674976e-02 -3.83910678e-02 -3.41364702e-02  1.19344904e-01  1.88747895e-01 -5.65557098e-02 -1.06225075e-02  9.72168282e-02 -2.63518435e-02  1.70827344e-02  6.14131504e-02  7.76539688e-02 -6.80762435e-02 -1.49589274e-01  1.31975689e-01  1.25919425e-01 -1.53747652e-01 -7.93266350e-02 -5.68269569e-02 -2.34836962e-02 -3.46477828e-03 -7.74228406e-02  1.73098760e-01 -3.91547945e-02  1.07319615e-01 -7.78750041e-02 -1.31476407e-02  1.77974894e-02  3.85831836e-02 -1.60569607e-01 -3.83905063e-02  1.89686839e-01 -1.35938667e-01 -1.26513710e-03 -3.05221657e-02  3.31013888e-02  9.44470696e-02 -1.01939850e-01 -1.55157004e-01  3.59892407e-03  1.20393002e-01 -9.09510521e-02  1.03432251e-01 -7.57779362e-02  1.21513558e-01  4.36552460e-02  1.69065788e-02  1.16101052e-02 -9.47030060e-02 -1.27573778e-02  5.61348296e-02 -1.71328906e-01 -1.27241942e-01  2.73284635e-02  1.24784164e-01  8.89645978e-02  9.56456374e-02  1.10529640e-01  3.26342128e-01  6.40253798e-02  9.69422926e-02  4.98788448e-02 -8.08464484e-02 -1.17768524e-01 -5.31545136e-02  1.69493800e-01 -2.04883981e-01 -3.29364594e-03 -6.70360970e-02 -7.71061282e-02 -1.21454965e-02  1.86305948e-01 -1.05070234e-01  1.68842906e-03 -1.73999191e-01 -2.88094745e-02 -1.32813023e-01 -4.49363783e-02 -1.36741132e-01  1.07164569e-01 -3.26397108e-02 -9.26306362e-03 -8.45765555e-02 -1.73852758e-01  3.95286891e-02 -8.68812693e-02 -1.19604410e-01  4.01386350e-02  3.91508448e-02 -1.63563923e-02 -7.94508203e-02 -3.47455953e-02  1.45422723e-01  9.55731020e-02 -8.59562860e-02  5.17382020e-02  1.51528045e-01 -1.42482425e-01  1.36516097e-01 -1.04185700e-01 -3.30181169e-02 -7.36273657e-02 -1.04218139e-02 -3.65854512e-02 -2.52108982e-02 -7.35851596e-02  5.75683998e-02 -3.42833081e-02  1.96911769e-01  2.52662196e-02 -4.61268433e-02 -1.11682500e-01  1.26965659e-03  1.66933170e-01 -1.53828462e-01  1.68552984e-02  4.84875362e-03 -2.66048880e-02 -2.14006080e-01  1.75643973e-02 -6.31763665e-02 -8.90574661e-02 -2.05616722e-02 -9.77519824e-03  9.17217051e-02  9.49742970e-02  5.93671844e-02 -1.44073389e-01  1.14388322e-01 -2.70866974e-02  1.35426842e-01 -6.96819819e-02  5.75040372e-02  9.39500688e-02 -7.79896948e-02  1.68337348e-01  7.79426314e-02 -2.86227546e-02  3.59632984e-02  2.22802077e-02 -1.40047144e-01  4.26831701e-02 -8.07431091e-02  8.11733878e-02 -6.14103860e-02  1.58060610e-02 -3.05402474e-01 -8.03599203e-02 -1.71728098e-01 -8.84995972e-03 -1.15478628e-01  4.85324987e-02  1.16100151e-01 -4.75213057e-02  1.09273609e-01 -1.62802087e-02  3.41141129e-02 -6.92940990e-02  1.18713100e-01 -1.14194600e-01  5.26907006e-02 -1.17351653e-01 -1.86593471e-01  9.68718613e-02 -4.87923031e-02 -1.14434313e-01 -9.46663424e-03  3.36357697e-02 -7.56217695e-02 -2.85760725e-02 -1.47585553e-01  1.18942234e-01  2.89070349e-02 -3.28501629e-02  1.01028378e-01 -7.04855894e-02  8.07475725e-02  3.60965754e-02 -8.61365245e-02 -2.31833495e-01  1.36388706e-01  4.72181057e-02  7.24908257e-02 -1.45642459e-01 -3.88646652e-02 -9.88974875e-02 -1.23977614e-02  2.04757910e-04  1.34093778e-01  1.06612159e-01 -6.72633542e-02 -1.93251117e-02 -1.30801736e-02 -4.46689957e-02 -1.25000779e-01 -3.22288770e-02 -5.71453822e-02 -1.62534983e-02 -5.59884403e-02 -4.63374434e-02 -3.86660613e-04  7.66242037e-02  1.90738158e-02 -1.55134152e-01  8.29322272e-02  3.26343661e-03  1.07024438e-01 -4.52267501e-02 -2.91910228e-02  2.74977868e-02  1.71589792e-02 -9.72502947e-03  1.56679159e-01  8.87116666e-02 -7.42406493e-02 -1.74419589e-01  4.27637435e-02 -1.40845083e-01  8.66846449e-02 -8.08643023e-02  9.17886039e-02 -1.61013496e-01 -5.86262909e-02 -1.72032537e-01 -1.17712245e-01 -3.90594522e-02  2.35289887e-02  7.99434981e-02 -1.67394064e-02 -4.47165002e-02  7.12869511e-02  4.90417977e-03  5.26329204e-02  1.24302655e-01  4.40777262e-02 -2.85431616e-02  1.14693727e-01 -7.67790392e-03]
[ 6.99322601e-03 -5.72568483e-02  3.08235693e-02 -1.89641076e-01  8.03614175e-02  9.97573063e-02  3.68254353e-02 -1.80561484e-02  9.29986721e-02 -2.08344850e-02  1.53125075e-01 -8.20683652e-02 -6.22735803e-02  1.58032512e-01  2.36734753e-01  7.19461487e-02  8.72237068e-02 -1.60396378e-01 -1.32233599e-01  1.51728015e-01  5.83072473e-02  1.31595370e-01 -2.43481343e-02  5.90822003e-02 -1.12204200e-01  8.44230484e-03 -9.30793416e-03  1.26605938e-01 -8.57290600e-02 -1.01075811e-01  2.59296635e-02  1.03414678e-01 -2.65688145e-02  1.11635292e-01 -9.01610599e-02  3.24763151e-02 -8.31302419e-02 -3.69175399e-02  6.80983821e-02 -1.68500284e-02 -9.85286647e-03  1.59645147e-01  4.22739096e-02 -6.57506569e-02  1.63043674e-01 -4.73336845e-02  1.85681792e-01  7.57544251e-02  7.52678140e-02 -6.82421822e-03 -2.81637457e-02  1.74793846e-01 -1.90250323e-04  1.96336197e-01  2.88984927e-02 -8.38574842e-02  2.85946138e-03  3.15760931e-02 -6.63779866e-02 -2.63770319e-02 -4.95605823e-03 -4.09754808e-02 -1.39361126e-01  1.60473045e-01  1.02358058e-01 -8.87217003e-03  9.56032455e-03  1.36052035e-01 -1.84894095e-02 -1.37763633e-02 -7.41643993e-02  9.09128253e-02  8.23249303e-02  4.67977148e-02  1.40490170e-02  8.70776584e-02 -2.50556927e-02  1.89043775e-01 -6.41605117e-02 -1.99829293e-02  2.64212294e-01  6.04619361e-02 -2.51579227e-01 -1.19053020e-01  2.35996256e-02  1.24708441e-01  5.10544003e-02 -7.27279749e-02  6.20329700e-02  8.74272682e-02 -5.67037369e-02  1.76424601e-02 -3.30952022e-02  4.05564882e-02 -5.12270875e-02  5.74925453e-02 -1.17145379e-02  1.69127872e-02 -1.40156847e-01 -8.73240790e-02  9.46753232e-02 -9.59288585e-02  7.66993757e-02 -1.00458306e-01 -3.02018067e-02  8.17746568e-02  1.32018692e-01 -1.59430515e-01  1.68168596e-02  3.85691474e-02 -1.31181219e-01 -1.66510933e-01 -9.54855232e-02 -7.44919922e-02 -4.57067909e-02 -1.83332211e-02  3.72140114e-02  7.69499792e-02 -9.25752995e-02 -1.22598369e-01  6.41150514e-02 -1.71685787e-01 -1.63603005e-01 -3.15999699e-02 -4.23367872e-02  1.21377357e-01  1.56132329e-02 -5.90919559e-02  6.60388644e-02  1.64088660e-01  5.90724429e-02 -3.55873386e-02  1.07847794e-02  8.09967784e-02  4.62412957e-02  4.28943611e-02  7.37457149e-02 -3.10733179e-02  1.06024193e-01  5.36068352e-02  1.52355573e-02 -1.87289952e-02 -1.18774050e-01 -5.28724652e-02  5.46954993e-02  1.73001357e-01 -1.67955527e-03  9.41959631e-02  2.35378859e-02  1.31675144e-02  8.75552374e-02 -5.49935833e-02 -5.00227246e-02 -8.60000087e-02 -1.38492465e-02 -5.69955217e-02 -5.45654977e-02  2.70439190e-02  2.36747977e-02 -2.97558895e-04  7.57642184e-02  6.02475644e-02 -8.72071866e-02  2.07453214e-01 -1.03553883e-01  6.00344175e-02  2.80027314e-02 -5.44803212e-02  1.35029413e-02 -1.65271266e-01  1.30357323e-02  1.32373456e-01  1.76123662e-01 -1.04105798e-01  9.95279325e-04 -3.30900509e-02  2.60143523e-02 -4.11320872e-02 -4.86914964e-02 -2.03849679e-01 -9.53543033e-02 -1.84339603e-01 -9.64986710e-03 -1.46060283e-01 -5.50249359e-02 -1.34988141e-02  4.81541615e-02 -9.80190475e-02  6.90437137e-02 -5.38964390e-02  9.10326581e-03 -2.23317866e-02 -5.46948022e-02  8.94632512e-02  1.70779495e-01  5.21842108e-02  1.18283114e-01  5.51833552e-03 -1.59050034e-01 -6.88790627e-02  2.11610864e-01 -2.32249657e-02 -1.00942243e-02  8.21011922e-03  1.70996155e-02 -9.78834465e-02  2.69205153e-02  1.53940479e-01 -1.60036726e-02 -4.16557489e-02 -3.27416650e-02 -6.92543516e-02 -2.59470068e-02 -5.34364403e-02  1.31664320e-02  1.07069477e-01 -7.04734967e-02  1.24359170e-01 -4.98997615e-02  2.58830511e-02  1.29308471e-02  2.97080295e-02 -1.37949325e-01  6.54921293e-02 -8.48013267e-02  2.09514184e-01 -9.98685860e-02  1.42651266e-01  1.15354409e-01 -1.61316487e-01 -8.97398901e-02 -1.62581351e-01 -1.80880183e-01 -1.40262898e-02 -1.42781778e-01  2.62903212e-02 -1.22763484e-01 -1.35903023e-01 -1.75681732e-02  4.47961756e-02  1.51168395e-01  7.92256186e-02 -4.16574125e-02  8.04878014e-02  5.85839274e-02 -5.01536572e-02 -2.43795484e-02 -2.27339094e-01  5.39503648e-02 -1.12730986e-01 -1.94868850e-01  5.10898153e-03  3.82907165e-02 -1.07975492e-01 -2.10343918e-01 -1.90150307e-01]
[-0.018707    0.04658329  0.0879821   0.00205716  0.07708253 -0.14321582 -0.10082713  0.01337905  0.12468412 -0.04016333  0.08182833  0.03429508  0.01359152 -0.05782411  0.04290635  0.01818435  0.15546729 -0.1207282  -0.08607614 -0.07868071  0.10139247 -0.01111558  0.0079943   0.09229676  0.11371513 -0.10820798  0.08876978 -0.02046997  0.02202135 -0.04934141 -0.35331922  0.14248636  0.00912242 -0.16790803  0.06506691  0.01498698 -0.04649009 -0.10997558 -0.0300314   0.06070814  0.0460448   0.04639836  0.06250856 -0.10197442  0.0164379   0.06662178  0.00481246 -0.07343694  0.02975111 -0.02512877  0.12673731  0.00225649  0.08794843  0.01356003  0.08606067  0.03278296 -0.05932036 -0.03676017 -0.05003991 -0.15937004 -0.02467802  0.0539876   0.16779139  0.13776161  0.03031839  0.03554494  0.02826393  0.00292299 -0.1322434   0.0436581  -0.11785945 -0.093743    0.03811384  0.05239875  0.01087844 -0.08278027 -0.0693182   0.01591867  0.04496575  0.04282479  0.01827264 -0.00540725 -0.04365483 -0.27897766 -0.07761228 -0.04848262  0.06681708  0.17804098 -0.0493908   0.05428048 -0.09769193  0.04743991 -0.01542442  0.04103991  0.0309108   0.16686664 -0.14010672 -0.10387373 -0.12517365 -0.06349849 -0.1379955   0.05672272 -0.25090726 -0.11949926 -0.04982637 -0.04376541 -0.13058718  0.03461925 -0.00287008  0.02356713 -0.11816399  0.04415069  0.10138814  0.08227515  0.11229723  0.03285572  0.10093836 -0.00782616 -0.11432235 -0.05048983  0.13302161 -0.04453687  0.23106628 -0.15644138  0.05253686  0.04419851  0.03067247  0.04869499 -0.02499572  0.06842373  0.0265458  -0.11270882 -0.03229385  0.01953291  0.05071103  0.07004687 -0.00084532  0.01829944  0.19148704 -0.2077191  -0.10297873 -0.06926564  0.0765321   0.02170989 -0.01101111 -0.06918231 -0.02952491 -0.02847231 -0.13835554  0.17911292 -0.01335677  0.12057866  0.01280841 -0.12613602 -0.15586062  0.07545523 -0.06915732 -0.18161954  0.05844803 -0.09494091 -0.05036202  0.05017868 -0.13417234  0.18776836 -0.06224183  0.05171652 -0.04912103 -0.0573479  -0.09955623 -0.06609105  0.03676862 -0.00997826  0.11119736 -0.02555773 -0.13267939 -0.05101001  0.10034874 -0.01046885  0.14750382  0.16051905  0.08787463  0.06036079  0.01309529  0.00378708  0.06449717  0.13156587  0.15569205  0.17641102  0.03692982  0.11188431 -0.03147543  0.05905781  0.0676816   0.0311865  -0.1717547   0.01777874  0.06445309 -0.06131554 -0.13325687  0.03062598 -0.06315161 -0.02578404  0.04470144 -0.06569561  0.15069702 -0.11811142  0.11289044  0.18504081 -0.11244866  0.00457631 -0.05231121 -0.06968216  0.11440841 -0.00836945 -0.07537339 -0.01656102  0.07867614  0.01082226 -0.07569341 -0.06555046  0.00420985  0.08151868  0.09445496 -0.01185885 -0.18077928  0.03972132  0.02942321 -0.01202173  0.0725362   0.0613184  -0.18850092  0.00963229  0.01510497  0.10313416 -0.14795943  0.08177707 -0.18859251 -0.04158557  0.11813221 -0.11168508 -0.07184089  0.12795192 -0.09008053 -0.05879359 -0.04910805 -0.00151422 -0.10319055  0.01627707  0.04708475 -0.07607152 -0.09615885  0.06041865  0.17849552  0.00058561  0.02242417 -0.08254466]
[ 5.88479255e-02 -2.84490262e-01  5.80285839e-03 -3.61920857e-02  1.50378313e-01 -8.41820705e-02  5.53692178e-02 -1.18128648e-01 -9.32246044e-02 -7.21104299e-03  1.10092019e-01  1.11563681e-01  3.70601756e-02 -9.43351939e-02  2.17486573e-01 -3.38665723e-02 -6.35536023e-02 -7.50357127e-02  1.81896919e-01 -2.68428428e-02 -6.25244292e-02 -2.88597177e-01 -1.32096187e-01 -9.43624655e-02 -5.11570892e-02 -3.86121650e-02  7.78692872e-04  2.03091781e-01 -6.43493883e-02 -8.20329923e-02  1.07478287e-01 -7.51648092e-02 -8.39835580e-02  4.72337813e-02  2.07903365e-03  5.98486037e-03  1.64711732e-02 -1.01330616e-01 -1.25652199e-01 -4.24994329e-03 -4.22255769e-02  1.84190401e-01 -6.28305746e-02  7.83645607e-03 -3.56010533e-02  2.79856371e-02  1.46334143e-02 -2.78979521e-02  9.59111882e-03  1.33245952e-01  5.46096561e-02 -2.01357153e-01 -1.61442194e-01  5.65359255e-02  2.41031513e-02 -7.10893275e-02 -8.13199827e-02  1.16733557e-01 -6.19498585e-02  3.93373279e-02  1.31775881e-01 -3.89333172e-02 -4.97810733e-02 -3.13200192e-02  9.38123927e-03  1.59384003e-01 -3.62478428e-02 -4.61028470e-02 -4.24350288e-02  1.82071592e-02 -4.23643579e-03 -1.81032543e-01 -2.84296594e-02 -9.48642144e-02 -7.15625364e-02  1.41248728e-02 -1.23031948e-01 -1.00342204e-01  9.07730569e-02  7.60903850e-02 -3.91358069e-02 -6.75563545e-02 -6.51090580e-02  1.37754278e-01  9.29406976e-02 -2.99188599e-02  2.65484258e-01 -9.44406517e-02 -3.18922263e-02  1.51229667e-02  1.00816403e-01  6.47137362e-02 -5.26367035e-02 -3.98417314e-02 -6.03508489e-02 -1.92748020e-03  1.73075748e-02 -6.86424644e-02  1.46447703e-01 -8.92303464e-02 -7.77629271e-02  4.16365279e-03  9.55606586e-02  1.00737459e-01  8.02246487e-02 -1.82948204e-01 -1.09046599e-01 -3.98417177e-02 -1.14348658e-01  2.64454124e-02  1.13459741e-01  1.47567572e-01 -7.13952579e-02  1.65205889e-01  5.05716606e-02 -3.95991546e-02  1.15182016e-01 -3.44261344e-02  1.36848864e-01  4.69891010e-02 -1.22122741e-01 -1.41411709e-01  2.27909851e-02 -7.38658697e-02 -5.69017004e-02  3.85201658e-02  1.56697588e-01 -1.85706886e-01 -6.80792924e-02 -1.38965101e-01  4.19095462e-02  1.46544655e-01  7.22880236e-02  2.68254237e-02 -1.62289685e-01 -1.89597540e-02  1.69709352e-01  6.81110344e-02  5.95270307e-03 -4.05184951e-02  1.09876923e-01  8.92771344e-03  8.99100867e-02 -1.07013432e-04 -8.52582520e-02  1.79276982e-01  7.77235412e-02 -1.27117195e-01  3.16777458e-02  2.86089576e-02 -3.14173298e-02  6.38913628e-02  1.33453262e-01 -1.81883982e-02 -3.66429992e-02  2.03769234e-01 -4.82522017e-02  5.58545943e-03 -8.49795829e-02  9.12279524e-02  1.11036676e-01 -1.49795374e-01 -1.58260826e-02  1.62583680e-01  6.94809867e-02 -6.28021525e-02  1.05808061e-01 -5.66668714e-02 -5.06871586e-02  9.27407814e-02  7.98241790e-02 -3.48067798e-02  5.47924886e-02  1.14710061e-01 -1.37822996e-01 -6.87666186e-02 -6.02526661e-02  8.87912215e-02 -5.64985269e-02 -2.69374836e-03  2.04247842e-02 -1.23310348e-01  1.71285082e-02  3.77149611e-02  6.33025803e-02  7.68564269e-02  1.05702268e-01 -1.53416997e-01  6.97822794e-02  6.06235954e-02  2.22578790e-02 -2.19327450e-02  5.02921599e-02  1.57400191e-02 -7.40882820e-02 -6.43528884e-02  2.48724394e-02 -1.01691087e-01 -1.60178119e-01  1.88276173e-02 -7.09159460e-02 -2.80055706e-02  1.13241807e-01  1.06813483e-01 -3.90898932e-02  9.93010228e-02  2.56219209e-02 -1.23493668e-01 -7.56811432e-03  1.77967918e-02 -1.05432909e-01  3.58966970e-02  4.66824839e-02 -1.87169620e-02  2.05206555e-02  9.31337513e-02  3.92324425e-02  2.95486920e-01  3.15605666e-02  1.64419005e-01  2.94895101e-01  1.12619374e-01  6.31956361e-02  4.18552968e-02 -1.23379905e-01 -1.60696501e-01 -6.46665461e-02 -1.07409409e-03  7.40800312e-02  1.41251862e-01  1.32469015e-01  2.33479438e-01 -7.67588306e-02 -3.31785180e-02  8.73525320e-02  5.11064514e-02 -7.81307561e-02 -3.19521399e-02 -3.08505973e-03  4.32144765e-02  1.08007808e-01 -2.36549787e-02 -8.46235684e-02 -8.48062321e-02  2.67201487e-03  2.81141762e-02  1.55087397e-01  8.99713484e-02 -5.50913088e-03 -3.68811770e-02  1.35354253e-02  5.85543154e-02  9.64461036e-02  2.33498445e-01 -8.47973629e-02  1.08444333e-01]
[-0.08352066 -0.02160977  0.03387234 -0.02049205 -0.02566344 -0.16656852  0.03332027  0.02131594  0.06816295 -0.04072212 -0.13651614  0.23581241 -0.16577439  0.11356804  0.13078248  0.12351358  0.07913319  0.0838636  -0.12013893  0.09745159  0.0597777  -0.14467956 -0.07908122  0.14062623  0.02926316 -0.06597255  0.07938896 -0.05485475  0.03636711 -0.09134661  0.08047853  0.0697377   0.11206675 -0.05326074 -0.07639505 -0.13172442  0.04031447  0.00883854  0.05442919 -0.01116094 -0.04753098  0.04289392  0.09733259  0.13051819  0.00417543  0.0585505   0.08574833 -0.10037989 -0.00060649 -0.01719746  0.146647   -0.11747923  0.02276098 -0.03144255  0.12484016 -0.13190613 -0.0550212  -0.00523379 -0.14132247 -0.04909418 -0.0998452   0.03287028  0.11180751  0.02820679  0.13517728  0.14664109 -0.02067793 -0.09493163  0.1098936  -0.05472799  0.03382412 -0.20365275 -0.0030914   0.05729469  0.06787098  0.15709547  0.14301428  0.07674873 -0.1917351  -0.02317803  0.02147131  0.18189258  0.08955945 -0.14013626 -0.06417772  0.0874043   0.16265928 -0.0813672   0.0833716   0.06810446 -0.14237436 -0.2283111  -0.03422959  0.17448387  0.25166747 -0.08746773  0.15559364 -0.05243521  0.10792145 -0.11483339 -0.03891931  0.09649069  0.03986636 -0.05773058 -0.03156649  0.07100552  0.067319   -0.00206258  0.04317633 -0.07890103  0.06091654 -0.09378697  0.0515939  -0.08139266  0.19367185  0.03549809  0.12584769 -0.15380023 -0.01485573 -0.1001442  -0.03424297 -0.01677539  0.02507322 -0.05549581 -0.01373012  0.03266543 -0.16051847 -0.05492527  0.0097825   0.03858785 -0.02046363  0.07191575  0.05246113  0.01116287 -0.29232968  0.06116533  0.16199543 -0.0555885   0.06923042  0.08152731  0.2038198  -0.20073123  0.18207309  0.05182811 -0.07994234 -0.08244035 -0.01664468  0.03664903 -0.10536413  0.08675385 -0.09637941 -0.00290599  0.04764994 -0.00967884  0.13185617  0.10166157 -0.2184811   0.13974428  0.04742624 -0.16355662  0.00667438  0.07988258 -0.10475751 -0.04795824 -0.03016979 -0.02557362  0.02674906  0.06909579  0.0230573   0.01715747  0.01202321  0.13224146  0.04806151  0.07780339 -0.07685898 -0.17369083 -0.11393832 -0.10784921  0.01796822 -0.04721362 -0.22424203 -0.21444886  0.13742148  0.06736527 -0.0799973  -0.16688551 -0.07045669 -0.00970437 -0.08788109  0.07490081 -0.09677715  0.00755193 -0.13453508 -0.00488942 -0.04204547 -0.17478959 -0.10110737 -0.04111877 -0.01533336 -0.09893726 -0.14393958 -0.2583332  -0.02692516  0.16859344  0.00299572 -0.08081872  0.05208107  0.06445431  0.20061346 -0.05647235 -0.0387589   0.06790028  0.00483972  0.17255415  0.16509693  0.09357719 -0.13114296  0.07365409  0.03616002  0.02530627 -0.18024175  0.21096348  0.05304585 -0.05127431 -0.02213517 -0.08607737  0.01279832 -0.12731554 -0.03062587  0.13548115  0.13684807 -0.02592825 -0.0216005  -0.01612769 -0.18366814  0.08885465  0.03300786  0.04856061 -0.0456622   0.09005375  0.00690905 -0.0833229  -0.03478874  0.02198138 -0.11596694 -0.04794455  0.04906689 -0.12517595  0.0986143   0.07139558 -0.13226469 -0.01519408  0.13525851  0.02257716  0.04324285 -0.02721086]
[-5.61669910e-02  1.36672827e-01  1.25687749e-01  4.33974606e-02  5.24420384e-03  1.64726687e-01  1.40077424e-02  1.61069148e-01 -1.00981573e-01  1.85821387e-02 -9.58642116e-02 -1.23361207e-02 -8.80002342e-02  1.95715716e-01 -2.45535659e-02 -5.08599205e-02 -3.01022660e-02  5.03285738e-03  4.45595907e-03  3.21285042e-02  4.68583955e-02 -6.01219414e-02  9.58298929e-02  3.85274749e-04  1.55463850e-01  7.61503467e-03  1.54216061e-02 -9.62856686e-02 -3.05069227e-02  1.12703164e-02  2.15131178e-01 -6.70593131e-02  1.32080989e-01 -2.75547247e-02  3.70085211e-02  8.33845123e-02  2.57050346e-02  6.57068504e-02 -6.32975003e-02 -8.15297059e-02 -2.54549597e-02 -1.10005458e-01 -1.32431059e-01  7.15920141e-03  5.51468725e-02 -8.60851914e-03 -8.50331138e-02  1.08431989e-01  5.60828758e-03  2.85583707e-02 -4.61816868e-02 -4.20660605e-03  9.95463641e-02 -3.70779243e-02 -9.31992513e-03 -1.01421146e-01 -3.70320276e-02 -2.71561578e-02  4.22760832e-02  4.31569754e-02 -1.89023261e-01 -3.91495270e-02  4.93053216e-02 -6.07410687e-03  6.16513750e-02 -7.98517757e-03  5.31925457e-02  6.57607793e-02 -1.50717463e-01 -1.20632364e-01 -2.54232752e-02 -6.13324771e-02 -7.20690667e-02 -9.05998454e-02 -9.84597925e-03 -9.19561507e-02 -6.34254202e-02  1.09153338e-01  1.36748052e-01  1.11094318e-01 -4.35715807e-02 -1.01533001e-01  8.95094853e-02  2.51747338e-01  5.34539326e-02  6.99122375e-02  1.70609125e-01  1.25843156e-01 -9.25030121e-02 -6.31490701e-02 -8.53321147e-02 -2.19609239e-04 -2.73801810e-02 -9.47451026e-02 -4.28110253e-02 -1.03801216e-01  1.97918147e-02  6.14775251e-02  1.63128237e-01 -1.88956322e-04  1.76161746e-01 -5.95640462e-02 -9.69935364e-03  8.43590189e-02 -4.41582216e-02 -4.22431880e-02 -3.38558116e-02 -1.21906260e-01 -2.64198654e-02  2.00858489e-02  1.44494136e-01 -1.78094722e-02 -7.42791838e-02  1.34596965e-01 -6.08743810e-02 -1.76694547e-01  4.49649267e-02 -5.65518974e-02 -4.96497647e-02  3.93189706e-02 -1.32096458e-01  5.33730076e-02 -1.13277047e-01  9.47540201e-02 -1.18337533e-01 -5.28307658e-02 -1.82824682e-02  3.36692531e-01 -7.75383350e-02  5.01800663e-03  5.84044060e-02 -9.13176312e-02  1.52801828e-01 -2.58171314e-02  2.03657743e-02 -1.10526296e-01  3.35523928e-02 -3.08802723e-02 -1.00520912e-01 -1.59647793e-01 -1.18158423e-01 -1.32883934e-01 -9.78270009e-02  1.26555138e-01 -1.66588406e-03  5.12516140e-02  5.42724752e-02  4.67670755e-02 -5.73207413e-02  1.26493869e-01  3.35790303e-02 -9.25880025e-02 -1.25465654e-01  7.88741460e-02  7.79824223e-02 -1.17308546e-01 -2.22371022e-02 -1.07715683e-01  1.42370890e-02  1.09182208e-01  2.79128658e-03  2.61669878e-01 -8.31288562e-03  1.33149568e-01 -1.40772627e-02 -2.28143490e-02 -1.61629822e-02 -7.72195182e-02  7.85876705e-02 -1.42079690e-01 -8.90745158e-03 -2.10900853e-01  5.15758514e-02  1.58379892e-01 -1.57677406e-01  7.61142492e-02 -1.63291316e-01  2.37868265e-02 -1.88784488e-02  1.04925183e-01 -2.81023077e-02  2.56904766e-02 -9.10709910e-02 -4.88398024e-02  1.24957610e-01 -8.83010395e-02 -1.18222559e-01  2.53430530e-02  5.71226520e-02  2.03392449e-02  4.14351475e-02 -6.25095109e-02 -5.45095696e-02 -5.94878854e-03 -4.05595617e-02  3.60673493e-02 -4.23220939e-02 -2.17523122e-01  2.15465289e-01  6.41312747e-02 -1.76345778e-01  9.92754978e-03  8.32298168e-02 -1.43821366e-02  1.43823938e-01  3.21634816e-03 -1.68783739e-02 -3.40391670e-02 -2.35965371e-01  1.96721506e-01  8.72849069e-02 -1.09203864e-01 -5.57861871e-02 -8.78761707e-03 -1.18101471e-01 -3.68469686e-02 -1.80629620e-02  1.03492200e-01  8.38910309e-02 -3.48843303e-02 -8.14359040e-02 -8.38771689e-02  8.24032566e-03 -9.22928687e-02  2.03107756e-02 -8.21853597e-02  2.02898349e-02 -4.92510524e-02  3.69964281e-02 -2.13241950e-02 -6.99513834e-02  4.36956546e-02  2.06927670e-02 -1.13374382e-04 -1.14063998e-01 -7.39647315e-02  1.49474104e-01  7.23358594e-02 -3.26189957e-02 -2.75577987e-02  1.90771849e-01 -1.37346089e-01  1.98493724e-01 -4.71502690e-02 -9.99262469e-02  2.74237795e-02 -2.26000446e-02  3.45056425e-02 -7.98820210e-02 -1.09068263e-01  7.69998187e-02 -8.77704163e-02 -4.48363314e-02 -6.52933720e-03  5.50705407e-02  2.90320134e-02]
[ 0.06936312  0.0156157  -0.05096128  0.1489546   0.03551076 -0.00974592  0.09170053 -0.05536532 -0.06456026 -0.12742519  0.23695143 -0.03442658  0.02176127  0.12411153 -0.04351955 -0.07740206  0.12354331 -0.13434874 -0.04568223 -0.02078963 -0.05852284 -0.10429104 -0.00625642  0.10900435 -0.09932352  0.00043032 -0.04700885 -0.00140355 -0.26269773  0.01626536 -0.012345    0.0812976   0.04020871 -0.08926293  0.13768268 -0.07225351 -0.17114988  0.0324246   0.08512057  0.20870849  0.18404021 -0.00595795 -0.13199958 -0.07053921 -0.17579109  0.20271571 -0.02607014 -0.04316197 -0.16171373 -0.09301041  0.05354925  0.10958499  0.01106124  0.01113491 -0.01842275 -0.21138765 -0.01374088  0.03892148  0.0418014   0.05052175 -0.21956653 -0.18399778 -0.10121068 -0.00703822 -0.01187635 -0.12460946  0.15294625 -0.02181074 -0.12007111 -0.03615053 -0.04816841  0.21867323 -0.03947191 -0.04877329 -0.04765857 -0.13704379 -0.08289767 -0.05817412 -0.01536287  0.16145055  0.01978447 -0.07568956 -0.17809051 -0.11910686  0.09503436  0.17682281  0.13728459  0.08310898 -0.01416639  0.04023408  0.20003647 -0.13445065 -0.03132926 -0.07709311 -0.2438348   0.05977385 -0.04306145  0.13300844 -0.01981207  0.14832958  0.018355   -0.09406035  0.15251388  0.11870571  0.03161231 -0.08282302 -0.171762   -0.05055918 -0.15984562 -0.14484949  0.14362479  0.00563323  0.00077741  0.04486973 -0.137344    0.06226115 -0.13267594  0.25724619  0.06584967 -0.03906244 -0.04193089 -0.05339201 -0.05258789 -0.12510497 -0.16139366 -0.10113572  0.03561147 -0.01143226 -0.12444395  0.04407403  0.0440708  -0.06080437 -0.17471276  0.09557879 -0.02668115 -0.0367302   0.06404651 -0.02316759 -0.00888015 -0.15088935  0.03258819 -0.13849704 -0.06680712 -0.08915121  0.02950079 -0.03326502  0.02497018  0.01968291  0.01058379  0.01652088 -0.08384169 -0.16773759  0.15718324 -0.14092001  0.12765385 -0.06737482 -0.17025787  0.08390304  0.03453051  0.05079186 -0.15362134  0.00101047 -0.03344748  0.11667799 -0.11090058 -0.02119987  0.05450904 -0.11309704 -0.01006518 -0.10579793 -0.00196626  0.01087833 -0.04877589 -0.07913297 -0.00721632 -0.05200452 -0.15026385 -0.08624555 -0.04491425 -0.11480855 -0.12300036 -0.03549486 -0.09589575  0.04039032  0.16379037 -0.01163116 -0.0084505  -0.14174153 -0.03580701  0.03644706  0.00365136  0.08421229  0.02790741 -0.07505438  0.01084165 -0.01329286  0.01139893 -0.02489872  0.07069185  0.01817705  0.06238437 -0.0012681   0.13731246 -0.08254766 -0.06686039  0.18370994 -0.23422434 -0.01222983  0.0038686   0.23794749  0.12806832 -0.24614063  0.134916   -0.0143654  -0.04367983  0.02679485  0.00342547  0.13577409  0.1228254   0.03918286 -0.06203577 -0.09119857 -0.0870605   0.04006764 -0.02778671 -0.02269728 -0.11261068 -0.1353599   0.05108183 -0.04319617 -0.03957984 -0.31183643  0.00564527 -0.09611044 -0.04248018 -0.0431167   0.04206639 -0.01599026 -0.00475613  0.10349333 -0.1564503  -0.07830097 -0.03083463  0.04370956  0.10479865  0.18598396 -0.03904442 -0.04275682  0.06133687 -0.08901866 -0.10414597 -0.11399792 -0.1842124   0.10138638  0.04459206  0.08589784]
[-0.09479307  0.0219441   0.0721802   0.22686766 -0.2905419   0.005289   -0.13419502 -0.01278612 -0.10889938  0.22009343 -0.0017208   0.03555301  0.13639005  0.27730669  0.12919531 -0.03101943 -0.08872938 -0.01166707 -0.17624593 -0.04490304 -0.08069529  0.00885687 -0.1323568  -0.00752849  0.03741178  0.09570471  0.07606494  0.16379898  0.03171438 -0.02959953 -0.02161242  0.02438993 -0.04418019  0.09904087  0.16177797 -0.01839924 -0.09494048 -0.10032122  0.16633989 -0.06801238 -0.03856217  0.12951039  0.17884536  0.1502186   0.06891528 -0.02468473  0.07441719 -0.02896621 -0.16360094 -0.00183378 -0.05166786  0.02701043 -0.12803623  0.0806007  -0.03368345 -0.17612737 -0.00228692  0.05292306 -0.17652307  0.10386941 -0.04734986 -0.06948447 -0.04332531 -0.09652921 -0.04082049 -0.04643736 -0.17920329  0.13280783  0.05895442 -0.04813683  0.03340581  0.01549606 -0.10808296  0.11500602  0.08224254 -0.11277067 -0.19457533 -0.05896438  0.18175275 -0.03579527  0.04005647 -0.18547838  0.01903477  0.10680519  0.19475382 -0.09206081 -0.00782786  0.06118621  0.08622633  0.0508222  -0.03572795 -0.01496037 -0.11872317 -0.03032933 -0.00030356  0.01398837  0.02295455 -0.05920289  0.05532668 -0.07525215 -0.03767767 -0.04777677 -0.06090874 -0.06511643 -0.04167871 -0.05002824 -0.13674649 -0.02021484 -0.16760207  0.1988621  -0.05263188 -0.10474145  0.13907751  0.10004386 -0.11558587 -0.09927645 -0.0546459   0.03187527 -0.25626742 -0.15404019 -0.06527106 -0.15632728  0.11331292 -0.13417199  0.02995585  0.07074505  0.01696331  0.06487871 -0.17045314  0.14742661 -0.01109517 -0.10591001  0.05885566 -0.06340047 -0.01213603 -0.08262836  0.21114015  0.07346841 -0.02214634  0.07576211 -0.15064421  0.01881723 -0.07645495 -0.0277082  -0.12178405  0.0667981  -0.06488861 -0.12298541  0.0441134   0.05388515 -0.06600195 -0.19405225  0.0993755   0.07947999  0.03508741  0.07474552  0.12360833 -0.02610156  0.16197006  0.02098832  0.02640364  0.14727685 -0.0620842   0.00482418 -0.04465497 -0.05496432  0.0918897   0.01613347 -0.03898346  0.03313748 -0.04540727 -0.13566837 -0.04424561  0.11125524 -0.07025419 -0.09187027 -0.16997413 -0.11421614  0.21595706  0.14612759 -0.0909249   0.04144158  0.01053289  0.04868081  0.02701218 -0.02432204  0.17108603 -0.0013999   0.01608631  0.09390606 -0.06296567  0.07219794 -0.11436262 -0.26366563  0.00801335  0.02708077  0.11666892  0.11309    -0.01940074  0.08533491  0.02593104  0.01811064 -0.01471453 -0.0889208   0.12710199  0.10182495 -0.01245681 -0.21703794  0.17104614  0.04349014  0.11966062  0.04244891 -0.19716828 -0.04621292  0.13256456  0.00090048 -0.07698829 -0.14695047  0.08313226 -0.08000214  0.08102974  0.15076871  0.08809353  0.08086681  0.0479441   0.11395007  0.13908256  0.12921388 -0.16238594 -0.11127095  0.09692864 -0.00575769 -0.06606647  0.08182481 -0.04703263  0.12861864 -0.03337956 -0.02857393 -0.23467107  0.04714442 -0.01140987 -0.07405463  0.07197999  0.12855557 -0.03936147 -0.03678326 -0.0811579  -0.03155071 -0.05478784  0.01856538  0.03157636  0.21553958  0.03613205  0.03395432  0.10249322  0.08322364]
[-0.03369431 -0.07059285  0.08056685 -0.18086126 -0.06872419  0.15051227  0.01581397 -0.06924656 -0.12760083 -0.12059187 -0.03492406 -0.00774925  0.01576594  0.04161477 -0.16982529  0.14647929 -0.03245057 -0.00417312 -0.01995325  0.01404498 -0.02546963 -0.06134405 -0.03040822 -0.01306084  0.04412145 -0.10425203  0.05136318  0.00970854  0.0081596  -0.00079996 -0.01264043 -0.02255101 -0.00790554 -0.21012476 -0.05903689  0.04443457 -0.1795671  -0.19320582  0.10969883  0.00804153 -0.01298365 -0.06663047 -0.00473175 -0.09801138 -0.09520692 -0.1001127  -0.15880344  0.02451814 -0.11877169  0.15536726 -0.15848107 -0.18375459  0.00176517 -0.1683588  -0.04186517 -0.07756063 -0.17751059  0.27447839  0.03158182 -0.05926184 -0.06055687 -0.13257067 -0.01308037 -0.07867677  0.07592279  0.03672511 -0.07467377 -0.0362799   0.05374075  0.18540049  0.12944097  0.09733544  0.05876062 -0.07698033 -0.08999214  0.06986168  0.0241672   0.08914421  0.11330681 -0.05928976  0.02219397  0.15806086  0.08933648 -0.19894511  0.03479254 -0.29412985  0.00760684 -0.03038239 -0.12998547 -0.00393995  0.19117016 -0.00516742 -0.03949153 -0.01225189  0.06484205 -0.08329142  0.06826749  0.04465402  0.03866215 -0.13466303 -0.06555278  0.0471913   0.14037641  0.16730018 -0.02159158 -0.02841836  0.15421377  0.0486001  -0.11133916  0.03258859 -0.02486145  0.20459624  0.11725895 -0.01497843 -0.17645786  0.06958087  0.15902635 -0.13043144  0.05667324  0.17394554  0.19309209 -0.05244492 -0.09679946  0.02300967 -0.08433552 -0.08886989  0.05816142 -0.0652028  -0.0270269  -0.0784769  -0.07637753 -0.06267664 -0.03429371 -0.10276643 -0.09398386  0.08790258 -0.00856585  0.023645    0.09941994 -0.15707917 -0.01458638  0.07081846 -0.13801322  0.03870228 -0.20525533 -0.11694844  0.02275174 -0.03334363 -0.06403007 -0.12779456  0.10233275 -0.09849062 -0.13128177  0.09471484 -0.02419891 -0.08095184  0.19320907 -0.10353279 -0.07376872 -0.0604954  -0.19444652  0.01858027 -0.03202412  0.12730962  0.01990112  0.14127387 -0.14292306 -0.12766281 -0.14060568 -0.07167489  0.06674807 -0.00639001 -0.01858565  0.06069918  0.19759982  0.06172959  0.0889088  -0.02799254  0.06938432  0.26346314 -0.02424662  0.05766774 -0.09452776 -0.03980626 -0.05045365  0.1380304  -0.19941246  0.20078687 -0.06446651  0.20326869 -0.02744223 -0.0764305   0.14180303  0.09603509  0.00868958  0.12614019 -0.04952974 -0.08330738 -0.04867256  0.00928643  0.04342414  0.01103842 -0.17281979 -0.03838302  0.04694731 -0.07664944  0.25278197  0.0344534  -0.11495796 -0.08884962 -0.12377065  0.00484724 -0.01825077 -0.02604721 -0.0307932  -0.1797766  -0.15172147 -0.13780994 -0.02618785  0.05949592  0.04363292 -0.08052249 -0.03465151  0.11916446 -0.04948796  0.05551871  0.0253294   0.00975309  0.03928626  0.04864293 -0.0554241  -0.0335974  -0.01333495  0.03542503  0.13822023 -0.00067433  0.12884553  0.01538293  0.11516398  0.01736186 -0.04557139  0.00747322 -0.0449288  -0.0791745   0.11645945  0.18674123 -0.03019919 -0.0694462  -0.00529216 -0.07993137  0.08688186 -0.02962335  0.02300121 -0.00625275  0.03882534 -0.00930789]
[-0.15814008 -0.01644673  0.08271222  0.0015161  -0.04595689  0.04556483 -0.1883881  -0.21601022 -0.10152317 -0.04138138  0.06336573  0.02327614 -0.06547936  0.04788475 -0.13086051  0.05524136 -0.15492238  0.20977816  0.16547461  0.02377425 -0.08936019  0.23274765 -0.0248165   0.02665947 -0.09563971  0.18589581  0.04365467 -0.09319884 -0.09116276 -0.06681814 -0.08728287  0.11036132 -0.06273785 -0.05635959  0.19089169 -0.01218905 -0.13425326 -0.11429571 -0.07874031  0.17521181 -0.12868912  0.01153793 -0.04642245 -0.02665161 -0.13710511  0.14079348 -0.03333163  0.00612986 -0.18282073  0.03353653 -0.00868167  0.07024651  0.10379146  0.1680691   0.01409027  0.0116993  -0.07494113 -0.10839089 -0.02633746  0.06040144 -0.00929722  0.00182566 -0.05768475  0.06551061 -0.10244039 -0.06173601 -0.03448772 -0.12745228  0.01721453 -0.12853492  0.05848448  0.10607997  0.11366434 -0.08657972  0.02089956  0.06680088  0.03564599 -0.08217509 -0.08065556 -0.04549997  0.07804743 -0.18418471  0.10580923 -0.08055473 -0.0674628   0.04191725 -0.09127871 -0.01640546  0.15767132  0.10965528  0.03877085  0.08312998 -0.0963412  -0.13778519 -0.01422371  0.11591754  0.11002451  0.03565861 -0.06516567 -0.03504738  0.1812565   0.10462255  0.14282867 -0.07146491 -0.11085264  0.0569906  -0.02349504 -0.10162995  0.09909884 -0.00342368 -0.11374698 -0.09463113  0.04830451  0.00593411  0.02713809 -0.14376893  0.08189576  0.00932611 -0.02201694  0.0073887   0.1237277  -0.21861075  0.09180325  0.08336347  0.057672    0.07396526  0.21047097 -0.04057403  0.20368971 -0.24562031 -0.0877291   0.02818238 -0.18431777 -0.16102258 -0.02407563  0.03996797  0.0082662   0.08855011  0.00912049 -0.00301229 -0.01297502 -0.0008455   0.0651681   0.09978791 -0.16996765  0.02561648 -0.02157759 -0.1030244  -0.13906662 -0.04110984  0.04017556  0.07383922  0.0349648   0.08220722  0.08559685 -0.04874321 -0.06672567 -0.00706406  0.05906402  0.0839291  -0.02338116  0.0385965  -0.05256775 -0.06797161 -0.19475759  0.13142289 -0.0132871  -0.06910797 -0.00717316 -0.10718456  0.01558452  0.02974955  0.06681797 -0.03940926  0.10049974  0.18879438  0.20208509  0.06547863 -0.05158326 -0.11534726 -0.01031338  0.16839508 -0.066755   -0.03941803 -0.05853175 -0.06116456  0.0039399  -0.07124721 -0.30500502 -0.14078738 -0.00067613 -0.10928978 -0.08685962  0.0614438   0.06488235  0.03210034  0.01157913 -0.07075673 -0.05755913 -0.05818912  0.07181054 -0.10479396 -0.0096538  -0.0542702   0.035123    0.07092106 -0.04067513 -0.04261633  0.11257501  0.0249191   0.02687618  0.14011873  0.1521267  -0.01290992 -0.1991379   0.04486481 -0.00903933  0.12633012  0.23191243 -0.08523406 -0.10065535 -0.07061935 -0.02450052  0.00473595 -0.08613677 -0.01576239  0.17721294 -0.08580063  0.06061611  0.06299396  0.01795466  0.12183702  0.19150827 -0.16220071 -0.07479354  0.04628736  0.0568156  -0.03483706  0.07882839 -0.15865738 -0.08854059 -0.03799637 -0.01162167 -0.10456518 -0.17967168 -0.03506839  0.01254893 -0.0572867  -0.02077194 -0.09859256 -0.10287062  0.08990497  0.08638154 -0.06473252  0.02370765 -0.0752445 ]
[ 0.02384108 -0.08270119 -0.08393172 -0.17528025 -0.02616201  0.1291842   0.0405728  -0.13940715 -0.01905889  0.09932301 -0.00140982  0.14976147 -0.0634725   0.14399921 -0.09543721 -0.07778669 -0.05203237  0.07627645 -0.004784    0.02012195 -0.11364129  0.02761745 -0.12300562  0.22220526 -0.07571215  0.03362003 -0.03536056  0.12196446 -0.05074566  0.18290773 -0.07123347 -0.13775063 -0.19700357  0.0934265   0.02721625 -0.18552109  0.11294953  0.04277348  0.0163031  -0.1821191   0.10202809 -0.1459734  -0.04509843 -0.03367133 -0.01865197  0.02978637  0.14321208  0.15839207 -0.04395355  0.17302481 -0.11631766 -0.13468103 -0.14015169 -0.08937957 -0.06107511 -0.14895993 -0.08714592  0.08642013  0.08907784  0.03049665 -0.08449369  0.18917344  0.04164525  0.11373682  0.11660691  0.19423504 -0.06203327 -0.01077651  0.12687012 -0.0297672   0.0652695   0.09087876  0.08643624 -0.01394106 -0.10877894 -0.16657483 -0.12556477 -0.04769567  0.06693422 -0.04867238 -0.02997985  0.07863355  0.05164227 -0.03821577 -0.11450719 -0.15968346  0.0413995  -0.07485618  0.05560253 -0.10299231 -0.18571583 -0.07904843  0.00667307 -0.06677615 -0.04121095  0.11407544  0.03694966 -0.22835131 -0.0999776  -0.04999167 -0.03546493 -0.04236001 -0.0713142  -0.01601328  0.13990722 -0.132757    0.11714669 -0.10007612  0.01299362 -0.04840569  0.04505969 -0.06044234  0.01281975  0.10791389 -0.02071778 -0.23110913  0.05083019  0.03691976  0.09854565  0.01545528 -0.00959611  0.1470197   0.12381356  0.02237333  0.21197258 -0.11401043  0.07757304  0.03345477 -0.11102297  0.06684921 -0.01106567 -0.09268329 -0.08571544 -0.12750249  0.10217382 -0.17480699 -0.13183529  0.09747159  0.08668078  0.01737631 -0.07459732 -0.02215748  0.0095022   0.02158493  0.07566973 -0.07603631 -0.0366426  -0.01585375  0.00664137  0.00886012 -0.02112302  0.06992187  0.16286811  0.09340879 -0.00985937 -0.05530402  0.14638678 -0.14767091 -0.12706888 -0.03256447 -0.08570155  0.1466958   0.01386048  0.0056569  -0.12509057 -0.06081172 -0.0716344   0.10928749 -0.16873426 -0.13982431  0.01221102 -0.1429968  -0.04007586 -0.0347946   0.0711274  -0.03253074  0.23917699 -0.0276235   0.03619301  0.03341095 -0.09488944  0.13363674 -0.14571336 -0.17183391 -0.17689619  0.18798776 -0.00210635 -0.14721574 -0.05448369 -0.04991304  0.06448035  0.01065589 -0.08680052 -0.09472568 -0.02226374  0.15019161  0.01362209  0.01310084  0.25020341 -0.15735987 -0.01164708  0.11204733  0.03453854 -0.02341066 -0.1761526   0.06036833  0.06226312  0.00642441 -0.0438491  -0.02635384  0.12757502  0.01497131  0.03048705  0.15727591 -0.04123767  0.01284056 -0.09010654  0.15530232 -0.06524503 -0.01064066 -0.06032559 -0.11098299 -0.01979448 -0.06217522  0.01273394 -0.10011364 -0.22747987 -0.11603431 -0.00180328  0.03886986 -0.02105849  0.11386473  0.08990507  0.14845455 -0.03881702  0.03540118  0.00836742  0.02960785 -0.19763686  0.14345462  0.00804976 -0.12796488 -0.14514258  0.01440607 -0.0130816  -0.01948386  0.07428004 -0.05587791  0.00630146  0.01715227  0.02707385  0.12291836  0.08939346 -0.07360645  0.08682351  0.05056548]
[ 1.81686155e-02 -5.62474923e-02  1.36841429e-01  5.81430177e-02 -1.88068044e-01  2.26905638e-03  8.05090161e-02 -9.69638558e-02  3.26665526e-02 -1.21947887e-02  9.08175881e-02 -1.55540324e-01  1.96073617e-02 -6.54425283e-03  1.15956720e-01 -9.52570832e-02 -3.46452293e-02 -1.36115409e-01  1.11101271e-02  7.59056464e-03  4.52706362e-02 -2.48686911e-02 -5.22040410e-03  6.89935093e-02 -6.56169606e-02 -3.86135131e-02  8.54306369e-05  9.51096007e-02  1.52863311e-02  9.42003787e-02  8.43650502e-02  1.90507917e-01 -1.65147802e-01  2.29088819e-02 -7.37246462e-02  1.94066840e-01 -6.28158922e-02  1.32689950e-01 -8.28387577e-02 -1.31028657e-01 -1.57131686e-02 -1.58063432e-01  3.00733214e-02  5.62702814e-02 -3.20712248e-02 -5.63418831e-03  3.37993357e-03  1.01812516e-01 -6.58704067e-02 -8.13020114e-02 -5.09290466e-03 -7.09269838e-03 -5.31600672e-02  8.31423808e-02 -1.26442983e-01  2.24623500e-01  3.33604420e-02 -1.80754285e-02  3.25688538e-02 -1.36763127e-01  8.04184560e-02  1.39758506e-01  4.38770464e-02 -8.20072925e-02  9.97525921e-02 -1.25906551e-01 -4.46612257e-02  7.32902508e-03 -1.34685995e-02  6.82939686e-02  4.74833731e-02  6.68397805e-02 -1.31265906e-01  1.07330297e-01 -9.18904401e-02  5.99753321e-02  1.32770748e-01 -4.08315840e-02  1.06914582e-01  1.06262596e-01  8.73442964e-02 -2.06362860e-01  2.63879621e-02 -6.08464164e-02 -2.23267894e-02  4.52036764e-02  1.15967224e-01  8.01421148e-02  8.76565740e-02  7.05343730e-02  9.96718810e-02  2.11881760e-02  1.27137849e-01  4.58911686e-02  1.54662388e-01  5.18836676e-02 -9.56056136e-03  1.60430557e-01  2.28626930e-01 -9.77265245e-04 -1.19083084e-01 -1.42940072e-01  7.21932486e-02  1.42765246e-01 -8.75313031e-02  5.07164281e-02 -1.35417926e-01 -1.40227251e-01  1.24867572e-02  2.08089862e-02 -1.13955735e-01 -5.53759785e-02 -3.58341297e-03  9.72710194e-02 -1.44970228e-01  1.49116822e-01  9.20768534e-02  1.15588065e-01 -9.71967027e-02 -2.53265454e-02 -6.80068781e-02 -9.51130134e-02 -1.69201410e-01  2.38053488e-02  5.72204321e-02 -2.77061084e-02 -8.72779521e-02 -5.62692586e-02 -1.26641839e-01 -5.48906231e-02 -6.12739991e-02  1.42298721e-01 -1.29427687e-01  4.12030875e-02  1.92319663e-03  1.60041992e-02 -4.08871382e-02 -1.70742566e-01 -2.57022066e-03  9.85183062e-02 -3.11837127e-03  8.86149558e-04 -1.46962245e-02 -9.59810087e-02 -1.66356551e-01  1.47766647e-01 -7.33183041e-02  1.31302238e-01 -7.42568878e-02  8.47476738e-02 -8.94110843e-02  8.31608663e-02  1.00254516e-01 -4.78430284e-02  6.83533522e-02  8.00620125e-02 -1.02862948e-01 -1.09992264e-01  1.36926383e-01 -7.88229192e-02  2.13592575e-02  1.00979908e-01  1.97737816e-02  2.09816177e-02 -5.99356105e-02 -8.24514321e-02 -3.08389285e-02  7.37468777e-02  4.48374349e-02  9.99378293e-02 -3.74686756e-02  6.61643406e-03 -3.18029519e-02 -8.48712771e-03  3.32433341e-02  1.15975550e-02  2.21567421e-01  1.48603288e-01  1.53920465e-01 -1.77057109e-01 -1.24502684e-01 -2.16684321e-01 -9.95043813e-02 -1.67763800e-01  4.96032654e-02  6.18864014e-02  1.90844967e-02  7.33358193e-02  5.27748059e-02  1.56149593e-01  2.04697555e-02  5.19732490e-02 -1.03052545e-01  1.98036147e-01 -1.35462734e-01 -4.72407035e-02 -1.01211395e-01 -7.46516034e-02 -2.80490879e-02 -4.21677443e-03 -1.78721981e-01 -4.67935072e-02  1.43133893e-01  8.10238046e-02 -4.38422412e-02 -2.23966076e-02  4.59283285e-03 -8.25466022e-02  5.09564692e-02  9.80334892e-02  4.52171956e-02  2.71705063e-03  5.72813586e-02  8.70508946e-02  3.12456187e-02 -1.25660088e-01  6.62262145e-02 -3.29486876e-02 -5.34974885e-02 -3.18740513e-02 -3.41149295e-02 -2.45343683e-03  3.97150144e-02  1.77739339e-01  8.90087038e-02  1.43222086e-01  4.24155683e-02 -5.84735333e-02  4.89620476e-02  8.58371865e-02  1.05782817e-01 -5.97091897e-02  8.52617722e-02  2.46625926e-03 -6.69536997e-02 -1.68105682e-01  4.68216396e-02 -1.55782940e-01 -8.84551532e-02  3.70857176e-02  1.07787473e-01 -1.63900180e-02  9.74180258e-02  6.78526024e-02  1.20102825e-01 -2.02237565e-01  5.95258581e-03 -1.95248907e-01  5.06391044e-02  1.57566592e-01 -8.26527316e-02 -9.69227287e-03 -5.68797475e-03 -4.66471516e-02 -7.82544880e-02  1.21641052e-02]
[-0.11081713  0.03963843  0.01413221  0.12251653  0.02632404 -0.13383558 -0.09910197  0.00541803  0.04922079 -0.01664497 -0.03245843  0.07862226  0.11584533  0.0613707  -0.08550905  0.08342806 -0.09702831  0.00795011 -0.08524071  0.08641271 -0.06297769  0.04784533 -0.17720456 -0.15756461  0.01718165 -0.00415769 -0.12210894  0.02032175  0.05990537 -0.06445008 -0.04975782 -0.07714137 -0.12238543 -0.0496214   0.16094034 -0.15913853  0.00402337 -0.05228528  0.06871319 -0.00261136 -0.00709697 -0.07339903  0.08399079 -0.00152921 -0.18150996  0.09087505 -0.06271724  0.05424402 -0.06236234  0.02929919  0.08128226 -0.01573648 -0.02711025  0.04083026 -0.01484583 -0.00863925 -0.00890718  0.08073196 -0.04111903 -0.00978048  0.01279567  0.16194716  0.010819   -0.18184465  0.04078701 -0.05905079 -0.04885226 -0.22736927 -0.16255863 -0.0387992  -0.0295657   0.11491059 -0.16922861  0.01545644  0.01866402  0.0312702  -0.00300687  0.00518107 -0.00765992 -0.15933159 -0.14441103  0.05117831  0.1812193  -0.08216527  0.12801069  0.02764899  0.07046056  0.08649868 -0.04028559 -0.01350816  0.01055175 -0.07051757 -0.00158552  0.05037132  0.16575727 -0.08141236 -0.06256483 -0.06872994  0.03122359 -0.05856749  0.0744283   0.19421231  0.21076279 -0.05021131 -0.14405071  0.09268896 -0.01380471 -0.01739053  0.06811162 -0.04260515  0.13916218 -0.05451031 -0.12068419  0.19302954 -0.16600938 -0.20772187 -0.12938956 -0.11003371 -0.03927839 -0.056491   -0.09238405  0.05635146  0.03025867 -0.00139745 -0.02137041  0.07748474 -0.06474597 -0.05667396  0.01831972 -0.15137583  0.13558711  0.18788781 -0.03426789  0.06211092  0.07079061 -0.01029878 -0.11513636 -0.04517007 -0.04780145  0.01211395  0.15500685  0.10677517 -0.06598241 -0.0191802  -0.04816501 -0.01581777  0.09005975  0.02025001  0.11711878  0.04542112 -0.04533782  0.07836551  0.1603169   0.17683175 -0.04845059  0.12978096  0.12898879  0.07162745  0.04185438  0.10444728  0.16290687 -0.00839202 -0.04828022  0.00485963  0.00028869  0.02682253 -0.18727534  0.04112317  0.05180933 -0.01432597  0.09892863 -0.04599153 -0.00302386 -0.20187238  0.04793054 -0.1059929  -0.0871505   0.11903371  0.04470987 -0.1107912  -0.12324592  0.0770495  -0.05112388 -0.00696394 -0.09137767 -0.01673543  0.06190179  0.13286069  0.16348391  0.01850959  0.0993327   0.079866   -0.08159041  0.11372313 -0.0414835  -0.03300693 -0.04358445 -0.00683875  0.0262648   0.04860355  0.07974693  0.03221005  0.11893005 -0.13084439  0.12156673  0.03047903  0.09819131  0.19233992 -0.06907687 -0.1399934   0.03528648  0.18623854 -0.2370834  -0.11389977 -0.08602804  0.00385361  0.01466475 -0.08130376 -0.15280686  0.03266082 -0.0921161  -0.00830167  0.02459845 -0.03698098  0.09380076  0.02036852 -0.18880561 -0.00680539 -0.08771487 -0.10209232  0.11032383 -0.12302992 -0.09197949  0.09897784  0.02220694 -0.17457626  0.11696928 -0.05888678  0.02433985 -0.06653539 -0.14490721 -0.00240667  0.09771963  0.12681987 -0.02676075  0.12784771  0.02435869 -0.03025759  0.01451172 -0.04151128  0.10197775  0.02074345  0.04588727 -0.02091469 -0.02745044 -0.04531912]
[ 4.72292036e-02 -2.65635455e-03 -7.71228257e-03  2.31352370e-01 -1.52611471e-02 -2.70852348e-02 -1.23974496e-01 -6.79605496e-02  4.66548608e-02  1.30808661e-01  5.12426086e-02  4.33930238e-02  8.38830099e-02  9.80645140e-02  1.75050119e-01  7.82629780e-03  7.26123541e-02  8.29101423e-02 -6.78445552e-02  6.22834341e-05  1.56213498e-01  1.24615812e-01 -3.85986470e-03  3.25778189e-03 -1.06525036e-01 -1.99981229e-04  3.14768427e-02 -7.34408406e-02  6.97861866e-02 -9.34168133e-02  2.47259484e-01  1.05021374e-01  5.21373054e-02  1.15125673e-02  2.53317523e-02 -1.31548859e-01  1.03293154e-01 -1.32365415e-01 -7.93695310e-02 -8.21533170e-02  1.63337145e-02  6.97951932e-02 -3.03793381e-02  1.76660169e-02 -8.70057418e-03 -2.60787706e-02 -1.68194873e-01  2.95802511e-02 -2.84029020e-02  1.48538187e-01  1.68816897e-01  1.40103224e-01 -1.21039001e-01  1.34062326e-01 -5.38652953e-02 -1.80747875e-02 -3.79096593e-02 -4.91532555e-02 -2.54708507e-01  1.22718307e-01  4.82686118e-02 -3.07076223e-04 -8.15944884e-02 -1.83840459e-02  4.03460116e-02  3.02199648e-02  1.42522459e-01 -6.96628195e-02  9.49859843e-02  4.90629770e-02  8.09930573e-02  8.60937287e-02  1.98917332e-02  1.20348673e-01  7.29041932e-02 -1.48801283e-02  1.35398638e-01 -1.28535818e-01  1.11758931e-01 -2.19139061e-02 -1.77369302e-02 -8.25409186e-02  1.59044553e-04 -2.57989536e-02  1.20497959e-01 -4.32288538e-02 -7.43760521e-02  1.19867081e-02 -1.24567333e-01  1.54720343e-01 -1.12427756e-01 -7.37609801e-02  1.66378740e-01 -5.87564083e-02 -1.94389288e-01 -1.16945563e-01 -1.02682972e-01 -3.96217008e-02 -6.39488457e-02 -1.33597842e-02  4.94168876e-02  4.60878121e-02 -1.10097788e-01 -7.48764289e-02  1.48271190e-02  1.54473382e-01  2.55547282e-02 -1.45483008e-02 -1.64063012e-01 -1.35296964e-01  9.85532461e-02  3.71495176e-02  1.40450827e-02  3.20668755e-02  3.06440339e-02  3.79323091e-02  6.63996926e-03 -5.98359123e-02 -5.89378114e-02  2.50615288e-02  5.99743750e-02 -4.29031946e-02 -4.20771877e-02  1.07856715e-01 -1.03577066e-01 -2.80613961e-03  1.92317909e-01  4.61299981e-02  1.87768270e-01 -4.20243154e-02  5.66277095e-02  3.84949741e-02  1.77678488e-01 -6.55964303e-02  7.19072279e-02  5.43774646e-02  3.16971215e-02 -1.21817980e-01  9.59301843e-02  2.10101397e-02  6.83918680e-02 -3.75554251e-02  5.98500821e-02 -5.07037626e-02  1.03037855e-01 -1.33446592e-01 -6.78452581e-02 -5.86586110e-02  1.81429096e-01 -1.20102907e-02  2.10854032e-01  5.47333165e-02 -8.23110686e-02 -1.67840028e-02 -6.92579422e-02  1.29988834e-02  4.61455831e-02  7.91510076e-02 -8.57207715e-02  1.28217871e-02 -1.31787740e-01  1.28905118e-01  1.38554215e-02  1.59919912e-01 -3.18873570e-02  2.75644993e-02  2.10997025e-01  6.52011030e-02  9.97416197e-02 -7.81681358e-02 -6.39405946e-02  2.94909521e-02 -4.30860609e-02 -6.48687323e-02 -1.22105395e-01 -7.35929164e-02  5.79729702e-02  1.49588864e-01 -4.64633528e-02 -1.16708705e-01  9.83533283e-02 -3.91645375e-02  3.74999978e-02 -6.34384131e-02 -1.93408016e-01  3.56954393e-02 -2.18277146e-01 -4.93741607e-02 -1.25812590e-01 -3.79179589e-02 -1.62919102e-02 -4.24294304e-02  7.37598922e-02  1.13634623e-01 -2.60660143e-02 -2.70500124e-02  3.00590643e-02 -4.15355009e-02  1.13765901e-01 -4.27577689e-02 -1.20639047e-01  1.52702381e-01 -1.15907255e-01 -7.71030412e-02  4.00667690e-02  9.70012348e-02  5.96020707e-02 -2.33375224e-01  7.23301611e-02 -9.70238688e-02 -1.20375813e-02 -4.34835855e-02 -1.06890233e-01 -6.45913472e-03 -3.00498619e-02 -4.06106056e-02 -8.95659911e-02 -4.39339783e-02 -1.82590344e-01 -1.12325144e-01  9.67029965e-02 -1.70930451e-01  7.77726161e-02 -1.00176685e-01  1.53431126e-01  2.05576042e-02 -5.16028722e-02 -7.30404268e-02 -1.71222434e-01  7.07058502e-02  6.33968733e-02 -1.09210494e-01 -1.24591471e-01 -1.32692417e-01 -1.68073885e-01 -6.51109962e-02 -9.54356151e-02 -5.67360003e-02  6.15974548e-02 -9.34324803e-02  9.30158038e-02 -1.03891036e-01  1.52005942e-04  4.50781234e-02 -5.14365068e-02  1.20066034e-02  2.46512526e-02  2.76578937e-02  2.15878885e-01  2.51551590e-03 -1.03682513e-02 -1.51975811e-03  1.25470152e-01 -6.87932092e-02 -2.19930736e-02 -1.08105363e-01]
[-0.10103361 -0.02016455 -0.04690948  0.05944536 -0.04509628 -0.15128863  0.06917859 -0.09526949  0.01503548  0.10052622  0.03554686  0.00787148 -0.07354702 -0.13693734 -0.03356714  0.23663183  0.04797068 -0.04547831  0.09409047 -0.06735321 -0.11663175  0.10817401 -0.02969875 -0.00483451  0.07621512 -0.02986669 -0.05888996  0.04034984 -0.19265685  0.0588688   0.07973469  0.02051119 -0.12458632 -0.01466832  0.02776855 -0.08649643  0.06321502 -0.04115806  0.02246148  0.02232059  0.02270149  0.11483374 -0.07612997 -0.13835842  0.0864544   0.00523878  0.03223718 -0.07036088 -0.030179   -0.11473523  0.23198298 -0.06060756 -0.00408333 -0.15965483  0.12040653 -0.00844967  0.06777626  0.22989003 -0.00853803  0.02520364  0.1051835  -0.01282683  0.12573809 -0.03087785 -0.06081587 -0.02693769 -0.20875711 -0.03131849  0.34332502 -0.08034456 -0.1682993  -0.17065105 -0.0556042   0.09297236 -0.11166394  0.0033377  -0.00298272 -0.06095723  0.18014154  0.08888463 -0.00108022  0.20893573 -0.2233295  -0.00503591 -0.16877711  0.11287388  0.14610228  0.04918787  0.12653199  0.09923364 -0.05927602  0.0915393  -0.13754549 -0.03105376 -0.0513957   0.10105181  0.09267884 -0.05026738 -0.08110055 -0.03108898 -0.11955205 -0.10613471  0.0248726   0.00330895 -0.11333332 -0.05721381 -0.08919468  0.05313796  0.03864161 -0.17614838  0.06459377  0.25214621 -0.1938368  -0.08874485  0.0922776   0.09789793  0.09676586 -0.0252534  -0.05406255 -0.08192167  0.0453192  -0.14810439  0.13876986  0.13579431 -0.08320289 -0.01738459 -0.0950142   0.09202881  0.02924443  0.0346892   0.11520757  0.02377142  0.07685722  0.0661459   0.26406945 -0.06690311  0.10280091 -0.06498898 -0.11520948  0.1170385  -0.08814163 -0.05678385 -0.02902238  0.023502    0.05452366  0.0054248   0.14847325  0.02747459  0.00847615 -0.00800049  0.08887004 -0.17441609  0.07486527  0.06722448 -0.00943777  0.06305413  0.11871335 -0.03629104  0.00306659 -0.07462927 -0.08851963 -0.14713769  0.08315664 -0.13429788  0.01951034  0.0033546  -0.17389424  0.09305228 -0.07784345  0.08666013 -0.02481888  0.04435216  0.07337754 -0.13255444  0.01909326  0.04359591  0.00835861  0.00684405 -0.03889999  0.08224283  0.17064011 -0.01006149  0.07400275  0.03327124 -0.019454    0.05272812  0.14290963  0.0527306   0.13804302 -0.06321046  0.08304756 -0.16609881 -0.10916472  0.09293029 -0.17370089 -0.20381739  0.18597457  0.06425965  0.04036747 -0.05677881 -0.09429228 -0.05223724 -0.11351472 -0.07893467 -0.15888967 -0.17885941  0.08386013 -0.09737442 -0.00638721 -0.31236292 -0.05629554  0.00948805  0.05525677  0.12433856 -0.10784615  0.03430829  0.02922957 -0.0324995  -0.01918488  0.20995106 -0.02004638  0.06904032 -0.14300218  0.01471946 -0.1402134   0.23161404 -0.14407401  0.04959055  0.05529502  0.08396541 -0.01219324  0.11319745 -0.08633271 -0.02642471 -0.15943122 -0.0286686  -0.04950676  0.19484306 -0.10622858 -0.14332906  0.13458706  0.00114921 -0.03076257 -0.02072628  0.02416295  0.04146875  0.08671804  0.11342571  0.11109638  0.12926439 -0.02612165  0.03526145  0.0156784   0.07611072  0.10750999  0.21475444]
[ 0.00225923 -0.02809921  0.03311548  0.0445356  -0.11781162 -0.05187739 -0.15367199  0.04209159 -0.03777943  0.02470808 -0.03283038  0.07120729  0.1096096  -0.16150737  0.00596786  0.07841509  0.02712636 -0.08576337  0.09588251  0.02162199  0.08367475 -0.1960308   0.13437029 -0.00050259 -0.0025227   0.05220102  0.14443971  0.04841355 -0.0845949  -0.05222195  0.17002725  0.11381403  0.1115232   0.13835772 -0.11667265  0.10508023 -0.06944869 -0.11109168  0.0148355  -0.09083949 -0.13072696 -0.131913   -0.02400242  0.03681362 -0.0487661  -0.04049057 -0.10626795  0.02496213  0.19122592 -0.0365594   0.05022616  0.05235043 -0.02722331  0.00323649  0.11569911  0.13759074 -0.06042982 -0.12680601 -0.10104964 -0.01965658 -0.0363428  -0.12304186  0.00977423  0.02703335 -0.23093027  0.11291515  0.09043878 -0.0134984  -0.02853448 -0.09017448 -0.12472361 -0.09512503  0.02251367  0.0231569  -0.07208184 -0.07284455  0.07505865  0.04740669 -0.10769385  0.1935415   0.09603258  0.14391483 -0.05152619  0.09842977  0.01246827  0.07652359 -0.17266291  0.10284614  0.09646752 -0.07038233 -0.13627838 -0.00355595 -0.055619   -0.0038552   0.11252319  0.0794072  -0.14426644  0.07623643 -0.16773025  0.04737023  0.00334023 -0.09651585  0.03152705 -0.11428148  0.13305001 -0.05718743  0.14403677 -0.10415555 -0.05456611 -0.0474409  -0.09610493  0.17476309  0.07567674  0.02431199  0.03972373  0.13405359 -0.31923956  0.05295754  0.15215466 -0.00440431  0.10004966 -0.01220118  0.0715526  -0.04204615  0.04791746 -0.05890231  0.05543382 -0.00936436  0.0697138   0.1241073   0.04173085  0.33946983  0.08635515  0.07052779 -0.01016922 -0.03349774 -0.1302653   0.05117422 -0.1248094   0.05035283  0.1143123  -0.01356861  0.07860144  0.05053693  0.10611673 -0.10845618 -0.09007827  0.05274654 -0.11870737  0.0529803   0.03527721 -0.02078667  0.13866682  0.06172411  0.08870641 -0.09555368  0.12975186 -0.17841173 -0.07554303  0.04499591 -0.00824792  0.02703843  0.18000341  0.02282511 -0.07785413 -0.02212657 -0.04560181  0.06003741  0.04547689  0.13410219 -0.19371579 -0.22824841  0.2002694   0.15796508 -0.07746291  0.01231223  0.14201707 -0.02700687 -0.04478024 -0.10489427  0.13127576  0.02150734  0.03692402  0.01058107  0.09090228  0.10962513  0.05302177 -0.10108241 -0.07509894 -0.09028263  0.09868477 -0.14962924 -0.10316473 -0.01854822 -0.21248245  0.13518995 -0.00843885 -0.11113721 -0.02242967 -0.07802226  0.01346477  0.04095055  0.01750371 -0.03850993 -0.05842088  0.0193778   0.05750871  0.00131269 -0.09318896 -0.01244174  0.05581583  0.09745758  0.02068505 -0.02542133 -0.19883962  0.11731296 -0.01054624  0.08705635  0.06451256  0.01467655  0.07931358 -0.02114382  0.0368176   0.01605857 -0.01563317 -0.04328667  0.01162392 -0.02041798 -0.10900406  0.03590959 -0.10424849  0.14891881  0.05224627 -0.00492955  0.03606518 -0.0079982  -0.02351152  0.01768629  0.10421396 -0.45486087 -0.04077148  0.17477261  0.03522965  0.0295091   0.07715784 -0.03939137  0.08189699  0.13683463 -0.18564436 -0.14128763 -0.02859317 -0.16195817  0.00193369  0.12223419  0.14271531 -0.07693698]
[-0.10114854 -0.00594681  0.05479088  0.13006683  0.14997637 -0.07457373 -0.08823249 -0.06973688 -0.22030666 -0.16630217  0.17698168 -0.19258578  0.0884392   0.09257543  0.15046639 -0.08874806 -0.09463848 -0.06679548  0.04707634  0.075845    0.09375261 -0.27814025  0.06718675  0.00320344  0.09058376 -0.0101357  -0.05311654  0.00730237 -0.0076232   0.19540236  0.37180653  0.08475175 -0.1013268  -0.04493275 -0.00540423  0.11335408 -0.05635425 -0.22017933  0.12371832 -0.04880609 -0.02187253 -0.06090433 -0.06886772 -0.01759231  0.04053516  0.00044266  0.10900318 -0.09984657  0.0515139   0.05599561  0.05590633 -0.20337189 -0.00080079 -0.09542034 -0.09801636  0.03748221 -0.09448562  0.17262557 -0.02193541  0.08245314  0.0430336  -0.21784168  0.01225385  0.0261257   0.06131143 -0.04370162  0.02479491 -0.21513248 -0.01324993  0.08774887  0.12960614  0.21244094 -0.09565782 -0.0170846   0.07933338 -0.05295468  0.18941962 -0.15402479  0.00807169 -0.00799187 -0.13927531  0.03182871 -0.00566082 -0.03841012  0.05684836 -0.06488048 -0.02230374 -0.06061365 -0.06347346  0.0057407   0.11134321 -0.07500488  0.04474453 -0.0944052   0.06151524  0.21661419 -0.20764127  0.01283311  0.09134044 -0.04841417  0.04011101  0.01290163 -0.05504361 -0.13452971  0.1448774   0.18223551  0.14617575  0.04021292  0.08013154 -0.07627342  0.04037434  0.00944945 -0.0097268  -0.00264701  0.01912893 -0.03387241  0.08604959  0.07770488 -0.04928937 -0.02569522 -0.02746111 -0.05427573  0.01273212  0.01171165  0.07964839 -0.07760428 -0.01207705  0.10109265  0.03121555  0.0198266   0.03162274  0.10473876  0.04296005 -0.04306518  0.22987756  0.08402086  0.03407503  0.04675405  0.0199419   0.11171196  0.08647456 -0.08278837  0.12093837  0.0480712  -0.02503742 -0.11871426 -0.10407003 -0.1447172  -0.07513003 -0.10498542  0.08662297 -0.08940589  0.01219509 -0.12165258  0.1087048  -0.02693391  0.18654333  0.08948403 -0.08345385 -0.28866584 -0.06963282 -0.05703395 -0.15124087 -0.14690128 -0.15349337  0.07952231 -0.14535483 -0.07445597 -0.04641635  0.03206754 -0.24505305 -0.08305108  0.22886643  0.03452759 -0.02097313 -0.12505081  0.05121005 -0.02872096 -0.22870908  0.13549152 -0.02861911  0.11587824  0.06352292 -0.11626017 -0.08749165  0.0332696   0.02014219  0.08239902 -0.02883363  0.1387709  -0.0369514   0.05615108  0.03818183 -0.07048081 -0.08783687  0.39551793  0.12037174 -0.09857596 -0.11234727  0.08685903  0.15780745  0.05936813 -0.0118922  -0.00500832 -0.05403733 -0.2067944   0.04023982  0.20333476  0.00167535  0.06948173 -0.11454336 -0.10846906 -0.12815346 -0.14005006 -0.03400783 -0.2157214   0.0098333  -0.10113871  0.11165475 -0.05133538  0.09345757 -0.13686248  0.14394363 -0.01805451 -0.20172182 -0.0979062   0.10443071  0.00571026 -0.15528361 -0.0667154  -0.08557277 -0.10919397 -0.04719241  0.17097718 -0.19248857 -0.01916688 -0.19822606  0.02577356 -0.09745563  0.10838381  0.00830543 -0.04234852  0.0074024   0.15671294  0.18293925  0.15113842 -0.03922282  0.12527639 -0.01138076 -0.03380519 -0.08278922  0.14806913 -0.05683782 -0.06333199 -0.0615748   0.05319319]
[ 2.18122529e-01 -6.06300197e-02  8.92249620e-02  8.94242732e-02 -2.07160673e-01 -1.08054142e-01 -1.55365788e-01 -1.47884666e-01  3.11822828e-02  7.33440952e-02  1.63105479e-01  6.19075718e-02 -5.32428842e-03 -6.40720280e-02 -8.92906177e-03 -1.87362538e-01  2.78435742e-02 -8.93671937e-02 -8.86331548e-03  7.97029240e-02  1.53229193e-01 -1.37393395e-01 -2.03096998e-01  1.10194895e-01  4.43596286e-02  8.55831606e-02  1.98162357e-01  1.75486023e-01 -7.85297030e-02  1.43353165e-02 -1.84353534e-01 -4.12325276e-02  1.01601214e-01 -6.15421869e-02  8.66435087e-02  9.60757820e-03  9.20372115e-02 -1.11275228e-01 -4.24608623e-02 -1.12612839e-01 -5.77893207e-02 -1.25078058e-01  3.01326442e-02 -3.06163257e-02  9.55165757e-02 -2.88431722e-02 -5.30113256e-02 -6.43452170e-02 -6.12153317e-02  7.28592641e-02 -4.06516132e-02  1.41882093e-01  2.31384044e-01  2.08236045e-01 -2.33201488e-02 -5.38536576e-02 -1.02022659e-02 -3.50577400e-02 -2.19916639e-02  8.77820780e-02  3.13676638e-02  2.98002450e-02  8.69435601e-02 -9.80170701e-02  2.14038109e-01 -1.59196215e-01  1.85746935e-02  8.32103865e-02 -1.87791659e-02 -7.34384502e-02 -9.96234541e-02 -1.14490265e-01  1.30834207e-01  8.78579045e-02  5.85768716e-02 -2.03742623e-01  1.06917327e-01 -6.01508147e-02 -5.25613173e-04 -1.16071954e-01  2.93719228e-02 -8.07471993e-02  7.09578619e-02  8.37459156e-02  1.16912119e-01  4.92592323e-02 -4.58101414e-02 -3.07293404e-01 -2.58053033e-01  7.92995936e-02  7.69876636e-02 -4.13656565e-02 -3.05306443e-01  1.43489426e-02  5.89072275e-02 -7.06945322e-02 -9.16146109e-03  2.53673389e-03  1.90123277e-02 -2.14385490e-01 -8.11178206e-03 -1.87805564e-02 -7.50208439e-02 -1.16979666e-02 -5.19760584e-02 -5.52862587e-02 -8.51603348e-02 -9.57208434e-02  1.02404187e-01  3.69752745e-02  1.62956312e-01  1.34518193e-01 -1.72174971e-01 -1.13178920e-01 -1.65777530e-03 -7.39528888e-02 -1.18549048e-01  6.40983589e-02  1.69930712e-01 -7.17810945e-03 -5.52719993e-02  1.04223078e-02  4.38043981e-02  3.55548027e-02  1.74306759e-01 -6.19458051e-02 -1.02731210e-01  4.83500501e-02  1.65844904e-01  1.80259648e-01  1.52431651e-01  4.81593817e-02  2.49370886e-02 -1.71052643e-01 -1.27928770e-01 -1.35957872e-01 -2.01306909e-01 -4.51265627e-02  6.16032507e-02  1.44358824e-01  2.38480043e-01 -9.97048195e-03 -8.04414207e-02 -1.51128069e-02  8.96672155e-02  1.72241534e-01 -2.25971066e-02 -1.05715590e-01  2.70334998e-01  5.43173901e-03 -8.40865797e-02  5.33370138e-03 -3.02431216e-02 -2.28199177e-01 -7.61097332e-02 -1.00461390e-01  7.18893203e-02 -9.94045724e-02  6.32611972e-02 -2.66156884e-02 -9.91037551e-02  3.67376793e-02  9.19615921e-02  5.50509999e-02  4.67695421e-02  5.07514332e-02  1.72040820e-01  8.96611001e-02 -5.10859131e-02  5.97412468e-03  8.88240698e-04 -4.45288446e-02 -6.61252179e-02 -1.16078085e-01 -2.15956711e-04 -1.16097611e-01 -1.06713303e-01 -6.21082989e-02  7.66606458e-02  3.01330385e-03 -4.53443242e-03 -1.67942531e-01  2.32814984e-02 -1.23200274e-02 -2.81034407e-02  4.11449820e-02 -1.80898350e-01  2.20217155e-01  1.50840590e-01  6.91009488e-02 -3.25874517e-02 -1.41214360e-01 -1.29036470e-02 -1.40958149e-01  1.55698363e-01 -2.88468077e-02  1.01683107e-01 -3.70368519e-02 -1.01862248e-01  8.04562952e-02 -5.34804925e-04 -4.20979011e-02  5.84501649e-02  1.24012792e-02  8.85538760e-02  5.40660807e-02 -6.66477500e-02 -2.61203480e-02  2.19969874e-02 -4.02559222e-02  1.06726709e-01 -2.91048585e-02  1.03316806e-01 -5.82384606e-02 -4.44703428e-03 -2.72543421e-02 -4.01891438e-02  4.97029705e-02  1.81431422e-02 -2.20942227e-02 -1.23167192e-01 -1.17656356e-01 -4.75056851e-02  1.15958110e-01  1.43505592e-02  9.46685105e-02  1.31694364e-01  1.35299781e-01  7.84158729e-02  8.21575125e-02  1.90520286e-01 -6.89888978e-02  3.42806018e-02  1.03535828e-01 -9.79998457e-02  1.28384717e-01 -3.25288023e-01 -1.40881589e-01 -3.87037554e-02 -1.52554374e-02  5.23675402e-02 -1.48286272e-03 -7.54600918e-03  5.11732241e-03  5.32015267e-03 -1.37147810e-02  8.94617831e-02 -1.31708731e-01 -1.04733678e-03  1.67837217e-02 -1.28890609e-01 -9.32233969e-02 -4.57974107e-02 -4.82454575e-02 -7.20636890e-02  8.23971119e-02]
[ 0.07173867  0.07164377  0.01468382  0.01797914  0.0432495  -0.0504988  -0.00384052  0.00259273  0.08681063 -0.04963441  0.01010836 -0.02715116 -0.0887258  -0.14993518  0.03897056  0.20370063 -0.09952467 -0.11524411  0.10882325 -0.01181652 -0.26766049  0.04865742  0.04150973  0.08878538 -0.11889241  0.05586631  0.09863857  0.08944637  0.13819925  0.05667427  0.06243262  0.05385014 -0.17618669 -0.02507583 -0.01144794 -0.12302328  0.06388024  0.05493982 -0.06859737 -0.01205115  0.07875238 -0.06910597 -0.02647993  0.17224877  0.04139016  0.09621397 -0.2871817  -0.02077994  0.05704203 -0.20729596  0.05744734  0.13531444 -0.01786482 -0.10825691  0.11904688  0.16347649 -0.12856318 -0.16255652 -0.03117844  0.05116861  0.01649351 -0.19701779 -0.0736782  -0.03721713 -0.11605092  0.13130619 -0.07532277  0.09025853 -0.10151249 -0.12925877 -0.10799476  0.1432707   0.15021408  0.19180269  0.07976979 -0.08784844 -0.16433674 -0.05581526  0.13605235 -0.1602072  -0.05757941  0.00264722 -0.08009089 -0.09922579 -0.11998539 -0.10102694 -0.04430195  0.08439486  0.00922488  0.01412423  0.11646937  0.03883009 -0.01888883 -0.03787898 -0.05545492  0.15028509 -0.04150842  0.04450292  0.08336353 -0.01336688  0.0682719   0.04974486 -0.1518113  -0.10233352 -0.02436369  0.01857135 -0.15765508  0.0959651  -0.23722687  0.06913832 -0.13631756 -0.10460395  0.03364551  0.21246003  0.03254949 -0.20440439 -0.05930197 -0.0799432  -0.05514358 -0.07634294 -0.01883371  0.00407922 -0.15560673  0.06212779 -0.11846902 -0.09825188  0.06532974  0.07581472  0.06056658  0.08342531 -0.09235962 -0.05576657  0.03416501  0.0938306   0.16267983  0.00200826  0.10452841 -0.00838226 -0.20541231  0.24552799 -0.03536368 -0.00650444 -0.05454757  0.07880646 -0.12990513  0.01958513  0.12891841 -0.07897363 -0.13923438 -0.08524402  0.11387943  0.01782156 -0.05743219  0.04717398  0.01532046  0.16345679  0.01451305 -0.13544657 -0.01171173 -0.23267803 -0.05549457 -0.11622315 -0.09577571 -0.0319838  -0.08322216  0.03055209  0.07006822 -0.02658212 -0.20413019  0.10404357 -0.11208722  0.1677518   0.04046116  0.02310412 -0.1786255  -0.05935213 -0.02071435  0.07842522  0.02135164 -0.02173094 -0.02205987  0.01035078  0.03103133  0.06308668  0.19939284 -0.05465694 -0.00153511 -0.04659953  0.0792199   0.09561559  0.1266293  -0.02914106 -0.11718771 -0.04613969  0.00315396  0.10630456 -0.02130581 -0.08048598  0.1188106   0.00209777  0.12508898 -0.00964726 -0.09754777  0.0464751   0.06957433  0.01515948  0.02959314  0.08576898 -0.00269785  0.06741514  0.19118593  0.02919819  0.01120595  0.11459248  0.06059714 -0.00964243 -0.05899794  0.06716733 -0.04978089 -0.11666026  0.05754345 -0.04768881 -0.02592782 -0.08035576  0.01299602  0.12844092 -0.04963091  0.00338205  0.06234895 -0.05088762 -0.12153886  0.0511444  -0.01260608  0.09539995  0.09919504  0.03788212  0.1426844  -0.12026611 -0.1106969  -0.0222276   0.05594922  0.13412155 -0.01476248  0.10604693  0.05216748  0.01311526 -0.05662746  0.15061129  0.16989946  0.03320813 -0.1704209  -0.0235471  -0.00711577  0.03504872  0.06821459 -0.07877599]
[ 0.11048838 -0.0028494  -0.05578646 -0.06546334 -0.15141912  0.02216209  0.090114   -0.07318888 -0.12168671  0.02687928 -0.02921031 -0.05556313  0.12428354  0.11022358  0.02740486  0.08743762  0.16235008 -0.03053196 -0.1174691  -0.03110026 -0.0125986  -0.19915621  0.14259113 -0.13358684  0.02559365 -0.15754819 -0.01616434 -0.20307719 -0.17950608 -0.09608458  0.06527429  0.05261432 -0.06924272 -0.25413746 -0.0068431   0.05239434  0.16427152 -0.17364318 -0.12380349  0.00869463 -0.02294837 -0.1780076  -0.01361949  0.17898015  0.13489909  0.12204926  0.07840072 -0.01786166  0.0856456   0.06929079 -0.0789779  -0.14084508 -0.01553874 -0.03341681  0.08124822 -0.14183846  0.13868511 -0.09724002  0.05692929 -0.05454261 -0.12207697  0.03798372  0.23151726 -0.02229672  0.15962885  0.10078921  0.23404412  0.00412262 -0.13453264 -0.14932496  0.06301428  0.05495736  0.00221357  0.0402544  -0.01160122  0.04725631  0.11728713  0.01922606 -0.14450092 -0.00149093  0.0208515   0.15058017 -0.02512589  0.13015547  0.07490131  0.01615243  0.05889003 -0.12731615 -0.0828665   0.01945297 -0.05965945 -0.16482791 -0.00207852  0.07772741 -0.02548801 -0.01531585 -0.08581287  0.12934476  0.09347599  0.02571412 -0.01285261  0.02238427 -0.23593954 -0.01387285  0.05287682  0.11168105  0.01323147  0.10470767  0.0691211  -0.08863232 -0.18073367  0.02717905  0.00291373 -0.13282604 -0.11322463  0.05510771 -0.09456142  0.10265283 -0.07127315  0.00168617 -0.09178912  0.13348774 -0.03601396  0.0672823  -0.08761162 -0.00562305 -0.07677755  0.14551725 -0.09417166  0.01355977  0.10989976  0.11826998 -0.08239292  0.16745966  0.01119327 -0.04338183 -0.10277549 -0.00173536  0.03715103 -0.05867584 -0.0029562  -0.04198183  0.09355014 -0.17014738  0.16978943  0.02538513  0.04433033  0.08988567 -0.03811152 -0.00220292 -0.05381618  0.07890425 -0.16464315 -0.16528885 -0.05302049  0.17635791 -0.01909676  0.10162122 -0.03812889  0.05465499  0.08293559 -0.17343848 -0.08909228 -0.06434781 -0.00266001  0.00912032  0.04291489  0.00805368  0.08310062  0.08834158  0.0392968   0.30504271 -0.10769963 -0.1350905  -0.04853588 -0.07016591 -0.03711688  0.0535414   0.02935199 -0.04725846  0.05083587  0.02670316 -0.0192057   0.16026055  0.01881957 -0.09849818  0.03056631  0.08486561 -0.04053753 -0.12323938  0.04643625  0.06977264  0.14261655 -0.13756673 -0.00864342  0.14346136  0.07438819 -0.0099657  -0.0229271  -0.08614264  0.07265667  0.07104179 -0.05954339 -0.22179969 -0.03907091  0.06369275 -0.06400181  0.20067439  0.10204236 -0.06373293  0.15660335  0.28838589  0.04243846 -0.25263272 -0.09646283  0.12312453 -0.02869387  0.04890734 -0.18095726  0.04383242  0.09559183 -0.10807212  0.03649846 -0.02111294  0.05438698  0.22043879 -0.11011312  0.05563817  0.08586738  0.05970576  0.00711546 -0.01333265 -0.12895831  0.1273862  -0.00904517  0.01912176  0.13760134  0.13255928 -0.02068892 -0.03319839 -0.07062813  0.10586638  0.02369676  0.09315683 -0.01465269 -0.05468606  0.15030223 -0.01411582 -0.04140378  0.17462514 -0.10204242  0.07317628  0.03564308  0.0275896  -0.05076305 -0.03556682]
[ 3.12258105e-02  2.66541609e-02 -1.43424156e-02  9.07041529e-02 -1.21577241e-01  3.36933688e-02  1.36901109e-01  1.60524378e-01 -5.27052671e-02 -9.49313528e-02 -2.02102896e-02 -1.89007050e-01 -1.74375090e-02 -2.00418266e-01 -1.57180801e-01 -6.09962860e-02 -1.21799974e-01  6.28061499e-02  1.33075563e-01  2.31586349e-02 -1.00205605e-01 -3.52702955e-02 -9.24956497e-02  6.03730304e-02  4.66146223e-02  7.77283807e-02 -6.69012352e-02 -1.06962573e-02  5.62214202e-03 -1.38976345e-01 -3.96792522e-02 -3.29998082e-02  5.95164751e-02  1.41353630e-02  2.31363164e-01  3.05208542e-02  1.16811704e-02  8.04790651e-04  4.88221428e-02 -8.71605007e-02 -2.14999434e-02  1.16362602e-01 -8.51313500e-02 -9.65106815e-02  3.24081456e-02 -1.27788901e-01  1.74632782e-01  2.76033368e-03  1.60164601e-01  2.96310686e-02  1.64196274e-02  1.26381523e-01 -1.54029996e-01 -7.78810743e-02  4.89689214e-03 -7.21376578e-02 -2.05024826e-02  6.68807016e-02  3.15146661e-02  2.57140575e-01  1.97383557e-01 -1.25023686e-01  1.34819579e-02  7.67198418e-02  1.00863105e-01 -1.40708585e-01  5.54058035e-02  2.22293370e-02 -9.30985637e-02  1.48849482e-01  9.41408794e-02 -1.15669415e-01 -1.61274569e-02 -4.94263252e-02 -4.67770335e-03 -2.37933624e-03 -1.79270615e-01  2.37474568e-01 -1.05338580e-01 -2.80891233e-02 -1.88362048e-02 -5.69288179e-02 -4.95904950e-02 -1.55300331e-02  3.75287820e-02 -1.62213715e-02 -1.43375623e-01 -7.00174835e-02 -5.92753786e-02  4.03522788e-02  7.06008189e-03 -9.21445760e-04  2.17058633e-02  9.85300510e-02  8.03840136e-02  5.81256394e-02 -1.54309055e-02  7.75834461e-02  2.19359729e-02  1.08558782e-03 -5.34866948e-03  1.69655062e-02 -1.31694890e-02 -1.32073357e-02 -5.98641855e-02 -1.49978315e-01 -5.43981870e-02 -9.51991891e-02 -1.63313655e-01  1.44568983e-02 -6.74656272e-03  1.89864610e-02  7.27500177e-02  1.26084709e-02  2.78310223e-02 -5.80868027e-02 -4.78703097e-02 -8.66216801e-02  2.32217482e-02 -1.08501058e-01  1.58788929e-04 -1.64386925e-01  4.15750816e-02  6.68412607e-02 -1.21484058e-01  5.20629578e-02  1.56901847e-02 -6.27544149e-02 -6.76703811e-02  5.05546829e-02  5.16323783e-02 -1.53971059e-01  9.70902390e-03 -3.41761334e-02  5.05727696e-02 -1.52405101e-02  2.72238589e-02  8.22081853e-02 -7.34228179e-02 -1.07653356e-02  1.38867426e-01  5.57293805e-02  8.36804982e-03 -4.55916509e-03 -1.02121035e-02  4.51207782e-03 -1.33066823e-01  7.96440491e-03 -1.42295698e-02  2.21500526e-02  2.44603501e-02  2.00518375e-01 -1.54806820e-02 -9.89050911e-02 -9.11714706e-03  1.30105392e-01  3.36459399e-02 -3.75720809e-03  6.99048888e-02  1.88806416e-01 -8.11230845e-02 -1.88735944e-01 -5.76235891e-02  1.37159136e-01 -3.39662637e-02  6.91327392e-02  5.80814292e-02  1.13332908e-01 -9.80033619e-02  1.34362084e-01  3.69491214e-03 -2.79046811e-01  1.55769569e-01  8.91433096e-02  1.18566802e-01 -5.54981825e-02 -1.13797125e-01 -2.03485625e-01 -6.45457396e-02  8.10116289e-02  6.70451319e-02 -9.59952942e-03 -3.82922995e-02 -1.16531618e-01  1.61027733e-02  3.44501885e-02  7.96696630e-02 -6.17853637e-02 -1.44796787e-01 -8.02184939e-02  7.02891447e-02  2.84382147e-01  1.48458176e-01 -3.82354374e-02  2.91452525e-03  8.26104082e-02 -1.50378176e-01 -1.42437205e-01 -9.55763437e-02 -6.55336322e-02 -1.90213058e-02 -1.40298451e-01 -8.96972433e-02 -1.02274562e-01  2.28805653e-02 -2.34785681e-02  4.28961897e-02  5.42199213e-02  1.10114847e-01  5.32551076e-02  2.43622685e-01 -1.34737596e-01  1.18757559e-01  1.49531700e-01 -9.08446282e-02  1.59318070e-01 -9.39855527e-02 -2.90938082e-03  1.38601800e-01  7.09717425e-02 -6.54109555e-02  4.37249383e-02 -3.13977242e-01  9.46629011e-02 -2.04092588e-01 -8.34888025e-02 -8.59530112e-02  8.91893337e-02 -2.74208856e-02 -8.96085126e-02 -9.29010604e-02 -2.08107273e-02  1.01670652e-01  7.59919240e-02  1.47217508e-01  1.88386707e-01 -1.02377751e-01  1.24940040e-01 -3.04616057e-02 -9.90599207e-02  5.36170512e-02 -6.50996674e-02 -1.21213002e-01 -1.24267986e-02  2.00326836e-02 -1.94885989e-01  1.11546958e-01 -4.58032191e-02  1.28107096e-01 -1.98380647e-02  4.97791886e-02  1.33295951e-02 -6.06638545e-02  9.60726193e-02  1.48680466e-01  5.93748310e-02]
[ 7.36416638e-02  1.30291938e-01 -7.46298104e-02 -1.47082157e-01 -1.66442737e-02  3.92963415e-02 -4.37920157e-02  7.59565278e-02 -7.47781096e-02 -4.77430152e-02 -2.91708567e-01  1.56566340e-02  8.10979382e-02 -2.03722854e-02 -1.86064268e-01 -6.11894927e-02  1.89347267e-01  3.59250008e-02 -2.16993512e-02 -3.34308501e-02  1.69011761e-01  6.61053375e-04 -1.29935010e-01  2.80594115e-02  4.98596427e-02 -7.77290540e-02 -1.05725858e-01 -1.12650141e-01  1.52336211e-02 -1.83860624e-01  2.34450195e-01 -3.88360100e-02  4.18539424e-02  2.08597658e-01 -1.12503469e-01 -1.44727842e-01  1.46841915e-01 -1.18255578e-01  2.96010508e-02 -1.11371828e-01  1.06820168e-01 -7.98609441e-02  6.72231233e-02 -5.37076846e-02  3.10692160e-02  8.29919479e-02 -1.44486608e-01  5.48115441e-02  2.10562726e-03 -6.50734265e-03 -5.62758885e-02 -2.81979717e-02  2.76800747e-02 -8.23439772e-02  1.09240532e-01 -2.77657473e-01 -1.02077917e-01 -5.81227596e-02  5.49430048e-02  7.36299202e-02 -5.42718306e-02 -2.30108311e-02 -8.62554751e-02  9.21653312e-02  5.26756836e-02 -5.39741673e-02 -1.12755950e-01  4.61463934e-02  3.55080214e-02  4.65413869e-03  1.10414169e-01  3.54983585e-02  1.10590994e-01  9.36112873e-02 -3.94251159e-02 -1.17733919e-01  1.98525461e-02  1.56477581e-01 -1.03146961e-01 -1.56213648e-01 -6.66354182e-02  1.65210672e-01  1.03896133e-01  1.49355183e-01 -1.03600178e-01  2.38951939e-02  4.70566046e-02  1.34318317e-01 -5.80894412e-02 -6.71744243e-02  9.41654114e-03  1.52749652e-01 -6.40335931e-02  7.46484266e-02  7.01476386e-02  9.33803562e-02 -8.72891473e-02 -1.00305085e-02 -2.03764433e-01  1.48586107e-01  5.58075717e-02  1.62021414e-02 -2.37308723e-03  9.53983252e-02  1.33668973e-01  1.15950318e-01 -1.00217959e-01  6.21324091e-03 -1.38470178e-01 -3.63282178e-03 -4.30118091e-02  9.78133142e-02  7.82970766e-02  6.83563677e-02  4.51893376e-02  7.11480553e-02 -3.39812017e-03 -1.20217394e-01  2.24252644e-01 -4.90157520e-02  6.88956747e-02 -6.37178097e-02 -9.18226000e-02  5.58359652e-02 -2.20612095e-02 -2.89347345e-02  1.21367145e-01  1.53718974e-01 -1.00458165e-01 -1.45698734e-01 -3.52608136e-02 -2.94467009e-02 -7.93591208e-02  5.63860609e-02  2.69875335e-02  6.03049206e-02 -4.73896585e-02  1.49535311e-01 -4.25830028e-02 -2.39834675e-02 -8.25072106e-02  7.95710438e-02 -2.22581880e-03 -4.05619213e-02 -1.43209673e-01  1.20942255e-01  8.64067716e-02 -1.84519060e-01  7.81475412e-02  2.59294317e-01  3.55276325e-02 -4.59184138e-03 -1.78434597e-02  9.85117822e-02  8.33278833e-02  3.29588632e-02 -5.34944120e-02 -2.81589741e-02 -8.80538577e-02  3.91534246e-02 -8.97311610e-02 -1.29941487e-01 -3.26741276e-02  4.47431923e-02 -1.57106039e-02 -4.67812442e-02 -9.50861800e-02 -1.13647726e-01 -1.14632039e-01 -1.59401528e-02  5.01766604e-02  1.41429196e-01  3.00850891e-02 -8.54896749e-02 -2.42615165e-02 -7.44707525e-02 -9.18569798e-02 -1.21716594e-01  1.20390341e-01 -1.44450394e-01  8.17468755e-02  1.47059333e-02  7.56615769e-02  1.50632249e-02 -5.22146121e-02  1.26631942e-01 -9.49918768e-02  1.20448308e-01  7.58403374e-02 -1.02649491e-01  4.24465235e-04  1.59535697e-02 -6.59639331e-02  1.45150487e-01 -2.96839300e-02  1.04244547e-02 -2.57590158e-01  1.23490280e-01 -8.16335390e-02  1.47984583e-02 -5.24949076e-02 -6.36661925e-02 -2.10960019e-02 -1.29129245e-02  1.99100036e-02 -1.15516616e-01  1.91301473e-01  2.54881506e-02  9.39637583e-02  1.50443584e-01  3.27362913e-02 -5.45297219e-02 -3.90886598e-02  9.61266200e-02  1.81750923e-02  2.26453835e-02 -1.39545537e-01  1.60865086e-01  5.54031158e-02 -4.68257172e-02 -5.49557550e-02  1.29272894e-01  8.05202328e-03 -1.05831169e-01  8.79922751e-02  8.16865999e-02  7.08638376e-02  2.61494669e-02  3.92395559e-02  6.32875427e-02  1.64746860e-03 -1.68983163e-01 -5.31819487e-02 -2.89156811e-02  2.48678588e-02  1.92380393e-01  1.34868494e-01  5.30037285e-02 -2.68314886e-02 -1.86152397e-01 -3.04007466e-02 -1.07490688e-01  3.97655863e-02  5.49221666e-02  2.34864586e-02  1.34999703e-01  5.08098061e-02 -1.22990832e-02  1.84662508e-04  8.77569883e-02 -9.71626007e-02 -2.03824020e-02  1.00080744e-02 -8.21380655e-02  1.64768847e-02  2.36462187e-01]
[-0.13348678 -0.02703799  0.02065203 -0.08211701  0.15401736  0.11090554 -0.13265666  0.13888488  0.11681357 -0.26170206 -0.11402807  0.06766157 -0.00247454  0.03738088 -0.10271717  0.05650067  0.01236157  0.07017638 -0.01131141  0.14011047  0.1349288   0.09918045  0.0546167  -0.12336856 -0.10511025 -0.03298847  0.07605507  0.10449483  0.12574827  0.22645937  0.10784878  0.08417075 -0.03908194  0.05590728 -0.14030624 -0.02019127  0.38746844  0.0383117   0.10624852  0.00927709  0.00502901 -0.06453799  0.10428209 -0.2309139  -0.06972067 -0.06460566 -0.13507087 -0.00941251 -0.06772715  0.14355431  0.08468806  0.01131841  0.04952668 -0.05297028 -0.01991903  0.0154798  -0.18076022  0.31541024 -0.08405156  0.04970368 -0.04904474 -0.01219491 -0.06385668  0.13050599  0.04674035 -0.09824833 -0.10670625  0.12691661 -0.08392359 -0.04274882 -0.04032784  0.09592235 -0.05997406  0.08009373  0.02126716 -0.16283338 -0.15866898  0.01063182 -0.17156923  0.0118328  -0.08262943 -0.11481069  0.07783274  0.08234546 -0.01811576  0.04485769  0.07236436 -0.0388718  -0.07831135  0.02341484 -0.05844247 -0.09806909  0.17347062 -0.08366663  0.12157731  0.09922782 -0.02295833 -0.10911483  0.1470909   0.05151368 -0.1448091   0.08317157  0.02714288 -0.00117424 -0.04037668  0.02742171  0.16294756 -0.17002445 -0.05818213  0.02318127 -0.03398358  0.01608679 -0.07052799 -0.14111828 -0.0226115  -0.01671918  0.11182991 -0.05563026  0.20110776  0.07529796 -0.14374499 -0.05085939 -0.08934947 -0.08913147 -0.17681423  0.03527575 -0.00126183 -0.04721438 -0.22056162  0.06973196  0.04902886 -0.01231576 -0.10563998  0.1063991  -0.20778535  0.1047605  -0.05092852 -0.03458801 -0.00377812  0.14099561  0.11554562 -0.06577684 -0.11259707  0.03350618  0.06177777 -0.0225941  -0.06687859 -0.09096802 -0.0445116   0.09218602  0.00828968  0.13940786  0.0009875  -0.01301202  0.07892698 -0.11570339 -0.04868795  0.02288809 -0.07732053 -0.00893135  0.08055456  0.10834654  0.01624833  0.16215694  0.00735752  0.14814697 -0.13992064 -0.04906912  0.01528295 -0.14965533  0.03259714 -0.10403673 -0.15869069 -0.02938892 -0.06042828 -0.06218467  0.28370697 -0.27766096  0.19743869 -0.02340008 -0.0733483  -0.10097821  0.00225244 -0.08257706  0.11685322  0.32364249  0.07773321 -0.01866319 -0.04560449 -0.30911589  0.03689809  0.0239623   0.03874287  0.18127282  0.07397144 -0.0430315  -0.05796454  0.02027037 -0.00374107  0.15340431  0.00291238  0.09022008 -0.05757051  0.00796778 -0.01376131  0.01028672  0.17634158 -0.08908255  0.00302059 -0.22056665  0.06745147  0.12300389 -0.02011072 -0.12531209  0.178661   -0.10631868  0.28748242  0.01026536 -0.15729126  0.13502929 -0.07241207 -0.04861345 -0.10447653  0.0934351   0.15334368  0.11474535  0.16109916 -0.06334447 -0.0389971   0.11465863 -0.02159812 -0.04746962 -0.0040366   0.14772119 -0.06302742  0.02961693 -0.08803242  0.03373518  0.11665116 -0.02869362 -0.22877565 -0.02375698  0.08167786  0.00222086  0.03666002  0.04952054 -0.12849241  0.07607267 -0.15173424  0.02491113 -0.12195963 -0.07077824  0.00093701 -0.06186901 -0.02767334 -0.01858748]
[-2.71994101e-02 -2.93942269e-04 -1.81357064e-01 -6.74704032e-02  1.65160185e-02  1.15329431e-02 -1.40049073e-01  7.96702085e-02  4.46323237e-02 -4.13147829e-02  1.01581097e-01  8.22943388e-02 -2.45579530e-01 -2.28530219e-01  4.44130276e-02 -6.08877751e-02  6.82794436e-02 -1.20280521e-01  1.06942058e-01 -3.44410335e-02 -1.27592594e-02  1.27464122e-01 -9.98608744e-02  8.58705710e-02 -1.02873865e-01 -8.69185288e-03  4.50706660e-03 -4.60898633e-02 -1.29598347e-02 -2.10650521e-01 -5.12257938e-02  3.92507445e-02  5.78817161e-02 -1.80554896e-02  3.42249665e-02 -1.04724459e-01 -1.58398743e-01 -1.73340268e-03 -7.61111035e-02  9.99844985e-02 -6.73084337e-02  1.00723671e-01 -1.44326707e-01  2.07666897e-01  1.17343061e-01  5.29807962e-02  9.55143494e-02  1.20773479e-01  1.36607975e-01  1.57261241e-02  6.05809581e-02 -6.35181262e-02  4.42605326e-02 -2.63386690e-02 -1.39103895e-01  6.14068076e-02  1.83750297e-01  5.20445233e-04 -6.68956841e-03  7.49879301e-02  1.39948102e-02  1.88738997e-01 -4.86422422e-02  6.85677703e-02 -4.88171461e-02  2.33787786e-03 -1.57250724e-02 -9.54630446e-02  3.41014906e-02  1.37808286e-01  5.69076711e-02 -7.88570448e-02 -7.49196173e-02  1.08017070e-01  7.72435312e-02  1.77165624e-01 -5.38869052e-02  1.35443073e-02  5.77872219e-02 -2.44463555e-02 -7.06139067e-03 -1.26526026e-02 -4.45802223e-02  1.50150848e-01 -8.86279857e-03  1.03145020e-01  9.37958829e-02 -1.02057056e-01  2.29430206e-01  4.62583667e-02 -9.53224715e-02 -1.66458634e-01  8.67109445e-02 -8.74461762e-02  6.03918992e-03  2.01067791e-01 -4.96540337e-03 -1.26999946e-01  6.69054048e-02  1.24171864e-02 -1.07711837e-01 -1.49053427e-01 -1.02991188e-02 -1.75666025e-01 -1.22320286e-01 -1.61088181e-01 -8.85445789e-02  1.00280422e-01 -1.10418220e-01 -7.08163133e-02  1.85009288e-02 -1.07801443e-01 -1.64338411e-01 -1.83232932e-01  1.33273862e-01 -7.92597894e-02 -5.90215683e-02  1.27273930e-01 -1.17844723e-01 -8.42350150e-02  5.36721417e-02 -4.98928558e-02  1.48920385e-01 -1.22692289e-01  2.41774209e-01 -1.70953122e-01 -8.63553694e-02  4.45156617e-02  4.44822228e-02  8.17955472e-02 -8.75233797e-03 -4.85964384e-02 -8.39327033e-02  1.69271933e-01  8.94484157e-02  1.31003892e-01 -9.27018571e-03 -3.26358470e-02 -2.22273256e-02 -8.83799917e-02  9.69488635e-02 -7.01429318e-02  2.19487147e-01  6.75814908e-04 -4.97711456e-02  4.71518454e-02 -1.41640160e-01 -9.44502265e-03  7.28633695e-02  1.46394285e-02 -1.27303603e-01 -1.13235229e-01  9.05280824e-02 -2.02801673e-03 -1.37210384e-01 -1.31438401e-01  1.32975439e-02 -9.40333118e-02 -4.47262666e-02  1.74956851e-02  6.71137610e-02  9.18799677e-03 -6.51001131e-02  5.91088953e-02  8.36414131e-02  1.17005451e-01  1.56798757e-02 -1.11471902e-01  8.84403793e-02 -1.04447034e-01  1.97556279e-02  3.25699047e-02  2.92306445e-02 -5.67842677e-03 -3.54462782e-02 -6.00832453e-02 -1.94227533e-02 -3.85062772e-02 -9.76265792e-02 -5.07236366e-02  1.73196817e-01 -5.33744543e-02  1.70453432e-01 -2.71063139e-03  9.04276642e-02 -1.49539398e-01 -3.52920946e-02  7.91587079e-02 -2.05365598e-01 -1.70842613e-01  1.33697722e-01 -9.72939471e-02 -9.76726173e-02 -6.61443871e-02  1.37786296e-01  9.33053126e-02  8.70124953e-02  1.30299087e-02 -8.76817234e-02 -2.05940411e-01  6.16621248e-02 -1.02306758e-01 -8.23236163e-02 -6.31548680e-02  8.92188521e-02  2.20810521e-02 -1.16359014e-02  2.23824422e-01  6.07645034e-02 -9.70195979e-02  3.18082966e-02 -8.61996241e-03  3.39354266e-02  7.85340008e-02  6.29837096e-02  2.77718286e-01 -2.22586068e-01  1.13137176e-01 -1.51775093e-01  1.23135366e-01  4.61857146e-02  4.07647694e-02 -2.03683653e-01 -7.27103020e-02  3.96700754e-02 -1.46030285e-02  3.76974591e-02  2.58517156e-02 -1.66325072e-01  1.94777407e-01  9.67216949e-02  1.30973963e-01  1.52420447e-01  8.13290480e-02 -2.77570601e-03  5.69672069e-02  1.69696026e-02  1.24152080e-01  1.61390562e-02  7.05727843e-02 -1.09743251e-01 -5.50200088e-02  4.87326584e-02  3.03786590e-01  1.82588832e-01  5.20782296e-02 -3.59180989e-02  1.69252256e-01 -1.49743778e-02 -1.84598592e-01 -1.83516398e-02  1.38198913e-02 -1.17429727e-01  6.30971792e-02  7.37040592e-02  1.47357674e-02]
[-0.13115564 -0.08410869 -0.14918531 -0.03828937 -0.01975277 -0.23935694 -0.07061813 -0.06564737 -0.10296523 -0.1048022  -0.08481977 -0.11895698  0.00186648  0.00909779  0.0387886   0.0406143  -0.16875234 -0.01013223  0.02955801 -0.06850707 -0.20803847  0.03120654 -0.00442186  0.01489381 -0.25683885 -0.12318591 -0.06937072 -0.00933947 -0.24215697 -0.02694788  0.00040654  0.12513629  0.08942315  0.10276572 -0.09086089 -0.09452937  0.09243488  0.14428084  0.00830561 -0.10349658 -0.09116876 -0.04292832  0.10377795 -0.09209511  0.02673424  0.09642883 -0.21411816 -0.06666426 -0.05836453  0.09765578  0.06925714  0.03083422  0.13309441 -0.21550293  0.11035695 -0.08105139  0.1746852  -0.02196545 -0.08030006 -0.11088158  0.15505194  0.01895383 -0.08097434  0.09533334  0.1915028   0.12118607  0.08737259  0.18647535 -0.0083448  -0.01835341 -0.10869679  0.02627049 -0.04152994 -0.09866242  0.0726639   0.0519786  -0.03271539  0.10683173 -0.06306363 -0.00192527 -0.04520752 -0.04021532  0.23759607 -0.02958055 -0.1678515  -0.13085908  0.11458138 -0.03930302 -0.06672618  0.08184817  0.08266143 -0.03170869  0.08454482  0.05657945 -0.05452049  0.05555309 -0.13427625 -0.02005687 -0.13349414 -0.13385046 -0.01666925 -0.11374143  0.17628364 -0.27922382 -0.00061514  0.06383988  0.11323741  0.05308016 -0.10113698 -0.08446705 -0.01413832 -0.14093839  0.01949258 -0.15786063  0.20217435  0.00937715 -0.01576753 -0.0122751   0.01496636 -0.02307887 -0.09545316 -0.07509485  0.06611515  0.02370383 -0.05577401  0.08194806 -0.02854894  0.24892397  0.06149971 -0.01364262 -0.01002842  0.13552745 -0.00508658  0.07025031 -0.22531865  0.06207291  0.0160713  -0.18356041 -0.14331284  0.04459515 -0.06487827  0.01623785 -0.00471492 -0.05962496 -0.04022642  0.08204904  0.19154425  0.05274884  0.01310056 -0.02650684  0.07239226 -0.0285497   0.01291578 -0.16039259 -0.11612233 -0.0067013   0.06416254  0.00857451 -0.04358477 -0.00512626 -0.09005362  0.00480797  0.01523944  0.19547153  0.04910299  0.06905649  0.00177371 -0.14925739  0.02737529 -0.02436715  0.01765727  0.07428374 -0.0045795   0.01598651 -0.0174517   0.139866    0.14559645 -0.05878504  0.09727848  0.03899415  0.04959019 -0.16022088  0.34274254  0.00392384  0.1443409  -0.00745327 -0.18893981 -0.0759731  -0.08056677  0.02784016 -0.0236343   0.05902823  0.02499887 -0.05303505  0.09220618 -0.09211558 -0.00422223  0.0685378  -0.0964132  -0.06072319  0.13326721  0.01055763  0.0500653   0.04239381 -0.11402851 -0.0356789  -0.0631381  -0.10438469  0.03235049  0.01220821  0.18534556 -0.04286291 -0.1314254   0.02072667 -0.16153685  0.05383352 -0.06224998 -0.12332009  0.0773466   0.00478588 -0.01761134 -0.01119665 -0.01204585 -0.04870848  0.12263924  0.1830505   0.10261022 -0.02213224  0.01521427  0.06670178 -0.1750341   0.10640245 -0.11961546 -0.02250278  0.11517929  0.08332215  0.23583546 -0.00838773  0.0689302   0.08195532  0.02031137 -0.00354769  0.04137777  0.09289381  0.03812968  0.09845881 -0.13154437  0.09804568  0.03676668 -0.06649599 -0.17865543 -0.03296247  0.0887586  -0.0724185  -0.10884595  0.05903171]
[ 1.84610749e-01  7.87917044e-02 -1.70722379e-02  1.00522249e-01 -2.34274641e-03  5.05893490e-02 -2.33477884e-01  8.34602825e-02 -7.19644887e-02  2.17053871e-02 -3.91338568e-02 -3.04319005e-01 -5.14548794e-02  8.15496030e-02  7.25785085e-02 -1.55590660e-01  4.62536591e-02 -1.18470207e-01 -4.67249153e-02  1.92669889e-01  7.06536524e-02  7.55987460e-02  5.43000402e-02  4.21730075e-02  1.57869830e-01  1.00971120e-01 -7.65825904e-02  4.35391376e-02 -1.54036065e-01  1.34287443e-01  3.71468840e-02  8.26446498e-02  1.55361997e-01 -6.18576113e-02 -9.74937987e-02 -1.11117599e-01 -2.06822615e-02  1.12074056e-01  1.02424150e-03 -7.28238326e-03 -2.51458032e-01 -6.29726227e-02  1.05883309e-01 -1.39439407e-01  4.84247048e-02 -2.38585606e-02 -1.39045461e-02  3.79324699e-02 -2.28309490e-01  9.11649397e-03  6.23930237e-02  1.43880410e-01 -1.65732042e-01  9.30880321e-02 -6.35054126e-03 -1.64713792e-02 -1.88199944e-02 -6.26685371e-03 -5.82426262e-02 -1.87154224e-01  1.58286185e-01 -8.16125824e-02  1.87248796e-01  3.62605950e-02 -4.85530885e-02 -1.79578719e-02  1.08206136e-01 -5.81834546e-03 -8.32758428e-03 -1.04622125e-01 -1.40026016e-01  1.18694069e-01  1.05672018e-01  2.90817806e-02  1.66219297e-02  6.21379649e-02 -1.76710129e-02  8.04884761e-02  4.32954913e-02  4.08663074e-02 -2.92502198e-02 -5.36100291e-02 -2.75681678e-01 -3.44968337e-02 -1.91835145e-02 -9.18921944e-02  1.86247777e-01 -7.61698041e-02 -4.82424815e-02  2.20601043e-01  6.29369437e-02 -2.22611106e-01 -9.63707842e-03  1.36241898e-02 -2.65901638e-02  4.45925771e-03 -3.46616688e-02  4.74495797e-04 -1.15225272e-01 -8.65854770e-02  2.61230364e-02  2.13212119e-01  9.83608927e-02 -1.29918431e-01 -6.32170009e-04  9.95446173e-03 -6.81778049e-02 -5.48462435e-03  2.83808679e-02  5.95550784e-02  4.03289534e-02  1.27794670e-01 -1.33139914e-01 -1.77937812e-02 -2.79661359e-02 -1.95702188e-02 -3.27122595e-05 -1.33053825e-01 -1.02015731e-01  1.67520189e-01  3.46712608e-02 -5.73441488e-02  9.01583344e-02  1.54550772e-01 -7.32974227e-02  1.26185726e-01  6.18747028e-02 -8.39370735e-02  1.15067194e-01 -6.07537156e-02  8.20875702e-03  2.25140530e-01 -6.62841038e-03 -1.44688135e-01 -1.53139853e-01  5.21525301e-02 -2.13275901e-01  2.38517018e-02 -1.10267657e-01 -5.86829367e-02 -1.94704594e-02  1.79190147e-01 -1.22141032e-01  8.86525269e-02  1.05389462e-02  4.42682730e-02  4.87981519e-02  2.12723836e-01  3.20676205e-02  9.59709096e-02 -4.04780023e-02 -1.03165427e-01 -3.08312772e-02 -1.52743692e-01 -3.72832373e-03  4.31870758e-03  4.36155787e-02  3.05003595e-02  5.49363051e-02  4.79954599e-02 -9.20153654e-02  3.75603058e-04  7.50106464e-02  7.61501736e-03  1.37359588e-01 -8.41269557e-03 -1.19525524e-01 -1.74228875e-02  8.29451385e-02 -9.88996818e-02 -1.37492507e-01 -3.51186805e-02 -8.96905998e-02 -4.22189103e-02 -1.87319398e-01 -1.07069177e-02  8.52561173e-02  5.70519644e-02  1.04097584e-01 -8.91319676e-02 -9.55429424e-02 -2.74436640e-02  3.94157424e-02 -1.17485380e-01 -6.29518018e-03  4.65052791e-02  3.21695370e-02 -4.79763142e-02  8.19702104e-02 -2.81872645e-02  2.31367372e-02  2.65601284e-02 -1.74436899e-01 -3.26147524e-01  2.44942294e-01  7.24842291e-02 -2.15508286e-01  6.32775283e-02  1.43822527e-01  1.22411960e-02 -1.38751836e-01 -2.13293807e-02 -2.63718296e-02  1.19614691e-01  3.24680726e-02 -9.34912806e-02  1.69879062e-01  2.53567429e-03  3.23726507e-02 -5.85175294e-02  2.24821504e-02  3.41951919e-02 -6.72882368e-02 -1.17855129e-01 -1.73890833e-01 -1.11057124e-01  1.00113330e-01 -1.44233399e-01  4.53733938e-02 -1.06810704e-03 -9.39066253e-02 -8.02786654e-02  6.75608744e-02  5.48780672e-03 -4.47554567e-02  7.90796886e-02 -7.62518311e-02 -1.09589824e-01 -3.43525867e-02  1.05537482e-01  8.67854917e-02 -4.48242051e-02 -1.16057162e-01  9.96081706e-02 -3.32516640e-02  1.91037567e-02 -6.67999851e-02  9.22215687e-03 -1.08788210e-01  8.43513818e-02 -4.60725548e-02  3.34269568e-02  2.30742276e-02  2.96990215e-03 -1.44174106e-01 -7.11285400e-02  7.12101709e-02 -1.04127480e-01  2.09398582e-01  1.73527154e-01  1.17764636e-01 -5.37811474e-02 -5.73890721e-02  1.20600474e-01  1.63046847e-01  1.31635615e-01]
